{"learner":{"attributes":{"scikit_learn":"{\"_estimator_type\": \"regressor\"}"},"feature_names":[],"feature_types":[],"gradient_booster":{"model":{"gbtree_model_param":{"num_parallel_tree":"1","num_trees":"200"},"iteration_indptr":[0,1,2,3,4,5,6,7,8,9,10,11,12,13,14,15,16,17,18,19,20,21,22,23,24,25,26,27,28,29,30,31,32,33,34,35,36,37,38,39,40,41,42,43,44,45,46,47,48,49,50,51,52,53,54,55,56,57,58,59,60,61,62,63,64,65,66,67,68,69,70,71,72,73,74,75,76,77,78,79,80,81,82,83,84,85,86,87,88,89,90,91,92,93,94,95,96,97,98,99,100,101,102,103,104,105,106,107,108,109,110,111,112,113,114,115,116,117,118,119,120,121,122,123,124,125,126,127,128,129,130,131,132,133,134,135,136,137,138,139,140,141,142,143,144,145,146,147,148,149,150,151,152,153,154,155,156,157,158,159,160,161,162,163,164,165,166,167,168,169,170,171,172,173,174,175,176,177,178,179,180,181,182,183,184,185,186,187,188,189,190,191,192,193,194,195,196,197,198,199,200],"tree_info":[0,0,0,0,0,0,0,0,0,0,0,0,0,0,0,0,0,0,0,0,0,0,0,0,0,0,0,0,0,0,0,0,0,0,0,0,0,0,0,0,0,0,0,0,0,0,0,0,0,0,0,0,0,0,0,0,0,0,0,0,0,0,0,0,0,0,0,0,0,0,0,0,0,0,0,0,0,0,0,0,0,0,0,0,0,0,0,0,0,0,0,0,0,0,0,0,0,0,0,0,0,0,0,0,0,0,0,0,0,0,0,0,0,0,0,0,0,0,0,0,0,0,0,0,0,0,0,0,0,0,0,0,0,0,0,0,0,0,0,0,0,0,0,0,0,0,0,0,0,0,0,0,0,0,0,0,0,0,0,0,0,0,0,0,0,0,0,0,0,0,0,0,0,0,0,0,0,0,0,0,0,0,0,0,0,0,0,0,0,0,0,0,0,0,0,0,0,0,0,0],"trees":[{"base_weights":[-1.06351825E-8,-8.263172E-1,1.1094788E0,-3.109282E-2,-3.4775117E-1,6.101937E-1,1.5957512E0,-7.476787E-1,-2.1887438E-1,-1.708701E-2,7.264834E-1,1.1415825E0,5.3649373E-2,-2.7223151E-2,-1.6600067E-2,-3.7667546E-1,-1.5993354E-1,-2.259565E-1,2.4542378E-1,5.867921E-1,2.7392086E-2,1.7693607E-2,3.5662163E-2,-6.1832434E-3,-1.2467829E-2,-2.0699734E-3,-6.017291E-3,-1.8101047E-4,-9.161398E-3,9.169784E-3,4.027345E-3,1.265769E-2,1.9041492E-2],"categories":[],"categories_nodes":[],"categories_segments":[],"categories_sizes":[],"default_left":[0,0,0,0,0,0,0,0,0,0,0,0,0,0,0,0,0,0,0,0,0,0,0,0,0,0,0,0,0,0,0,0,0],"id":0,"left_children":[1,3,5,-1,7,9,11,13,15,17,19,21,-1,-1,-1,23,25,27,29,31,-1,-1,-1,-1,-1,-1,-1,-1,-1,-1,-1,-1,-1],"loss_changes":[6.8941956E2,4.2977325E1,7.6961426E1,0E0,6.6913548E0,1.1683815E1,1.2126251E1,4.9142456E-1,8.884516E-1,1.481048E0,2.9829178E0,6.2594604E-1,0E0,0E0,0E0,9.357619E-2,2.670436E-1,2.6016277E-1,3.9330006E-2,3.6429977E-1,0E0,0E0,0E0,0E0,0E0,0E0,0E0,0E0,0E0,0E0,0E0,0E0,0E0],"parents":[2147483647,0,0,1,1,2,2,4,4,5,5,6,6,7,7,8,8,9,9,10,10,11,11,15,15,16,16,17,17,18,18,19,19],"right_children":[2,4,6,-1,8,10,12,14,16,18,20,22,-1,-1,-1,24,26,28,30,32,-1,-1,-1,-1,-1,-1,-1,-1,-1,-1,-1,-1,-1],"split_conditions":[5E-1,0E0,1E0,-3.109282E-2,-4.4444445E-1,-6.666667E-1,-3.3333334E-1,-7.777778E-1,0E0,-8.888889E-1,3.3333334E-1,-1E0,5.3649373E-2,-2.7223151E-2,-1.6600067E-2,-4.40059E-1,-2.9655275E-1,-6.0708153E-1,6.5094155E-1,-4.4444445E-1,2.7392086E-2,1.7693607E-2,3.5662163E-2,-6.1832434E-3,-1.2467829E-2,-2.0699734E-3,-6.017291E-3,-1.8101047E-4,-9.161398E-3,9.169784E-3,4.027345E-3,1.265769E-2,1.9041492E-2],"split_indices":[0,0,0,0,3,3,3,3,3,3,3,3,0,0,0,1,2,1,8,3,0,0,0,0,0,0,0,0,0,0,0,0,0],"split_type":[0,0,0,0,0,0,0,0,0,0,0,0,0,0,0,0,0,0,0,0,0,0,0,0,0,0,0,0,0,0,0,0,0],"sum_hessian":[7.5E2,4.3E2,3.2E2,2.98E2,1.32E2,1.59E2,1.61E2,3.1E1,1.01E2,2.5E1,1.34E2,5E1,1.11E2,1.5E1,1.6E1,2.6E1,7.5E1,1.4E1,1.1E1,7.9E1,5.5E1,5E0,4.5E1,6E0,2E1,2.4E1,5.1E1,4E0,1E1,6E0,5E0,2E1,5.9E1],"tree_param":{"num_deleted":"0","num_feature":"14","num_nodes":"33","size_leaf_vector":"1"}},{"base_weights":[9.093415E-5,-8.017635E-1,1.0767238E0,-3.0163156E-2,-3.378492E-1,5.9228134E-1,1.5485392E0,-7.266178E-1,-2.1257034E-1,-1.6426133E-2,7.051266E-1,1.1083813E0,5.205426E-2,-2.64575E-2,-1.6131356E-2,-3.2225055E-1,-1.3356805E-1,-2.198006E-1,2.3916079E-1,5.6958455E-1,2.6584996E-2,1.7251268E-2,3.4615558E-2,-1.18085565E-2,-7.569713E-3,-1.8214775E-3,-5.0287438E-3,-1.7666745E-4,-8.911539E-3,8.933988E-3,3.926661E-3,1.2296043E-2,1.8479766E-2],"categories":[],"categories_nodes":[],"categories_segments":[],"categories_sizes":[],"default_left":[0,0,0,0,0,0,0,0,0,0,0,0,0,0,0,0,0,0,0,0,0,0,0,0,0,0,0,0,0,0,0,0,0],"id":1,"left_children":[1,3,5,-1,7,9,11,13,15,17,19,21,-1,-1,-1,23,25,27,29,31,-1,-1,-1,-1,-1,-1,-1,-1,-1,-1,-1,-1,-1],"loss_changes":[6.4920374E2,4.0384552E1,7.245294E1,0E0,6.323242E0,1.1001949E1,1.1382629E1,4.6456337E-1,8.4078646E-1,1.4040439E0,2.8079605E0,5.733032E-1,0E0,0E0,0E0,1.10283375E-1,1.4117002E-1,2.4612314E-1,3.7208796E-2,3.4048843E-1,0E0,0E0,0E0,0E0,0E0,0E0,0E0,0E0,0E0,0E0,0E0,0E0,0E0],"parents":[2147483647,0,0,1,1,2,2,4,4,5,5,6,6,7,7,8,8,9,9,10,10,11,11,15,15,16,16,17,17,18,18,19,19],"right_children":[2,4,6,-1,8,10,12,14,16,18,20,22,-1,-1,-1,24,26,28,30,32,-1,-1,-1,-1,-1,-1,-1,-1,-1,-1,-1,-1,-1],"split_conditions":[5E-1,0E0,1E0,-3.0163156E-2,-4.4444445E-1,-6.666667E-1,-3.3333334E-1,-7.777778E-1,2.2222222E-1,-8.888889E-1,3.3333334E-1,-1E0,5.205426E-2,-2.64575E-2,-1.6131356E-2,-1.1111111E-1,-2.9655275E-1,-6.0708153E-1,6.5094155E-1,-4.4444445E-1,2.6584996E-2,1.7251268E-2,3.4615558E-2,-1.18085565E-2,-7.569713E-3,-1.8214775E-3,-5.0287438E-3,-1.7666745E-4,-8.911539E-3,8.933988E-3,3.926661E-3,1.2296043E-2,1.8479766E-2],"split_indices":[0,0,0,0,3,3,3,3,3,3,3,3,0,0,0,3,2,1,8,3,0,0,0,0,0,0,0,0,0,0,0,0,0],"split_type":[0,0,0,0,0,0,0,0,0,0,0,0,0,0,0,0,0,0,0,0,0,0,0,0,0,0,0,0,0,0,0,0,0],"sum_hessian":[7.5E2,4.3E2,3.2E2,2.98E2,1.32E2,1.59E2,1.61E2,3.1E1,1.01E2,2.5E1,1.34E2,5E1,1.11E2,1.5E1,1.6E1,4.1E1,6E1,1.4E1,1.1E1,7.9E1,5.5E1,5E0,4.5E1,1.8E1,2.3E1,2E1,4E1,4E0,1E1,6E0,5E0,2E1,5.9E1],"tree_param":{"num_deleted":"0","num_feature":"14","num_nodes":"33","size_leaf_vector":"1"}},{"base_weights":[1.7615753E-4,-7.7794033E-1,1.0449363E0,-2.9261291E-2,-3.2823113E-1,5.748949E-1,1.5027245E0,-7.061501E-1,-2.0645034E-1,-1.5788253E-2,6.8439764E-1,1.0761468E0,5.0506577E-2,-2.5713382E-2,-1.5675882E-2,-3.5595065E-1,-1.5062194E-1,-2.1381241E-1,2.3305763E-1,5.528817E-1,2.5801685E-2,1.6819987E-2,3.3599667E-2,-5.7750973E-3,-1.1804493E-2,-1.9303074E-3,-5.67616E-3,-1.724274E-4,-8.668495E-3,8.704256E-3,3.828492E-3,1.1944731E-2,1.7934611E-2],"categories":[],"categories_nodes":[],"categories_segments":[],"categories_sizes":[],"default_left":[0,0,0,0,0,0,0,0,0,0,0,0,0,0,0,0,0,0,0,0,0,0,0,0,0,0,0,0,0,0,0,0,0],"id":2,"left_children":[1,3,5,-1,7,9,11,13,15,17,19,21,-1,-1,-1,23,25,27,29,31,-1,-1,-1,-1,-1,-1,-1,-1,-1,-1,-1,-1,-1],"loss_changes":[6.113347E2,3.7947845E1,6.820868E1,0E0,5.9753094E0,1.0359837E1,1.0684479E1,4.3916988E-1,7.9771566E-1,1.3310456E0,2.6432457E0,5.2464294E-1,0E0,0E0,0E0,8.9886904E-2,2.4082315E-1,2.3284107E-1,3.520155E-2,3.1822205E-1,0E0,0E0,0E0,0E0,0E0,0E0,0E0,0E0,0E0,0E0,0E0,0E0,0E0],"parents":[2147483647,0,0,1,1,2,2,4,4,5,5,6,6,7,7,8,8,9,9,10,10,11,11,15,15,16,16,17,17,18,18,19,19],"right_children":[2,4,6,-1,8,10,12,14,16,18,20,22,-1,-1,-1,24,26,28,30,32,-1,-1,-1,-1,-1,-1,-1,-1,-1,-1,-1,-1,-1],"split_conditions":[5E-1,0E0,1E0,-2.9261291E-2,-4.4444445E-1,-6.666667E-1,-3.3333334E-1,-7.777778E-1,0E0,-8.888889E-1,3.3333334E-1,-1E0,5.0506577E-2,-2.5713382E-2,-1.5675882E-2,-4.40059E-1,-2.9655275E-1,-6.0708153E-1,6.5094155E-1,-4.4444445E-1,2.5801685E-2,1.6819987E-2,3.3599667E-2,-5.7750973E-3,-1.1804493E-2,-1.9303074E-3,-5.67616E-3,-1.724274E-4,-8.668495E-3,8.704256E-3,3.828492E-3,1.1944731E-2,1.7934611E-2],"split_indices":[0,0,0,0,3,3,3,3,3,3,3,3,0,0,0,1,2,1,8,3,0,0,0,0,0,0,0,0,0,0,0,0,0],"split_type":[0,0,0,0,0,0,0,0,0,0,0,0,0,0,0,0,0,0,0,0,0,0,0,0,0,0,0,0,0,0,0,0,0],"sum_hessian":[7.5E2,4.3E2,3.2E2,2.98E2,1.32E2,1.59E2,1.61E2,3.1E1,1.01E2,2.5E1,1.34E2,5E1,1.11E2,1.5E1,1.6E1,2.6E1,7.5E1,1.4E1,1.1E1,7.9E1,5.5E1,5E0,4.5E1,6E0,2E1,2.4E1,5.1E1,4E0,1E1,6E0,5E0,2E1,5.9E1],"tree_param":{"num_deleted":"0","num_feature":"14","num_nodes":"33","size_leaf_vector":"1"}},{"base_weights":[2.567449E-4,-7.548244E-1,1.0140877E0,-2.8386386E-2,-3.188847E-1,5.5801916E-1,1.4582658E0,-6.862591E-1,-2.0050369E-1,-1.5172637E-2,6.642782E-1,1.0448511E0,4.900491E-2,-2.4990194E-2,-1.5233272E-2,-3.0492762E-1,-1.253183E-1,-2.079875E-1,2.2711033E-1,5.366688E-1,2.5041457E-2,1.6399488E-2,3.261359E-2,-1.11660035E-2,-7.168946E-3,-1.7142845E-3,-4.715427E-3,-1.6829037E-4,-8.432084E-3,8.480435E-3,3.732779E-3,1.2983062E-2,1.8121691E-2],"categories":[],"categories_nodes":[],"categories_segments":[],"categories_sizes":[],"default_left":[0,0,0,0,0,0,0,0,0,0,0,0,0,0,0,0,0,0,0,0,0,0,0,0,0,0,0,0,0,0,0,0,0],"id":3,"left_children":[1,3,5,-1,7,9,11,13,15,17,19,21,-1,-1,-1,23,25,27,29,31,-1,-1,-1,-1,-1,-1,-1,-1,-1,-1,-1,-1,-1],"loss_changes":[5.7567444E2,3.565825E1,6.421304E1,0E0,5.646593E0,9.755165E0,1.0029022E1,4.1516304E-1,7.626047E-1,1.2618458E0,2.4882011E0,4.79702E-1,0E0,0E0,0E0,9.743118E-2,1.2352544E-1,2.2027582E-1,3.330213E-2,2.9870987E-1,0E0,0E0,0E0,0E0,0E0,0E0,0E0,0E0,0E0,0E0,0E0,0E0,0E0],"parents":[2147483647,0,0,1,1,2,2,4,4,5,5,6,6,7,7,8,8,9,9,10,10,11,11,15,15,16,16,17,17,18,18,19,19],"right_children":[2,4,6,-1,8,10,12,14,16,18,20,22,-1,-1,-1,24,26,28,30,32,-1,-1,-1,-1,-1,-1,-1,-1,-1,-1,-1,-1,-1],"split_conditions":[5E-1,0E0,1E0,-2.8386386E-2,-4.4444445E-1,-6.666667E-1,-3.3333334E-1,-7.777778E-1,2.2222222E-1,-8.888889E-1,3.3333334E-1,-1E0,4.900491E-2,-2.4990194E-2,-1.5233272E-2,-1.1111111E-1,-2.9655275E-1,-6.0708153E-1,6.5094155E-1,-2.2222222E-1,2.5041457E-2,1.6399488E-2,3.261359E-2,-1.11660035E-2,-7.168946E-3,-1.7142845E-3,-4.715427E-3,-1.6829037E-4,-8.432084E-3,8.480435E-3,3.732779E-3,1.2983062E-2,1.8121691E-2],"split_indices":[0,0,0,0,3,3,3,3,3,3,3,3,0,0,0,3,2,1,8,3,0,0,0,0,0,0,0,0,0,0,0,0,0],"split_type":[0,0,0,0,0,0,0,0,0,0,0,0,0,0,0,0,0,0,0,0,0,0,0,0,0,0,0,0,0,0,0,0,0],"sum_hessian":[7.5E2,4.3E2,3.2E2,2.98E2,1.32E2,1.59E2,1.61E2,3.1E1,1.01E2,2.5E1,1.34E2,5E1,1.11E2,1.5E1,1.6E1,4.1E1,6E1,1.4E1,1.1E1,7.9E1,5.5E1,5E0,4.5E1,1.8E1,2.3E1,2E1,4E1,4E0,1E1,6E0,5E0,3.4E1,4.5E1],"tree_param":{"num_deleted":"0","num_feature":"14","num_nodes":"33","size_leaf_vector":"1"}},{"base_weights":[3.348184E-4,-7.323963E-1,9.841566E-1,-2.7537644E-2,-3.0980676E-1,5.4165214E-1,1.415123E0,-6.669283E-1,-1.9473134E-1,6.022018E-2,6.615396E-1,1.0144666E0,4.754789E-2,-2.4287343E-2,-1.4803156E-2,-2.9621625E-1,-1.2166417E-1,-2.0232119E-1,2.643202E-1,5.3849715E-1,2.4303634E-2,1.5989505E-2,3.1656455E-2,-9.680264E-3,-4.90039E-3,-1.6653065E-3,-4.577414E-3,-1.6425061E-4,-8.202116E-3,2.3126889E-3,8.454379E-3,1.7739015E-2,1.3139763E-2],"categories":[],"categories_nodes":[],"categories_segments":[],"categories_sizes":[],"default_left":[0,0,0,0,0,0,0,0,0,0,0,0,0,0,0,0,0,0,0,0,0,0,0,0,0,0,0,0,0,0,0,0,0],"id":4,"left_children":[1,3,5,-1,7,9,11,13,15,17,19,21,-1,-1,-1,23,25,27,29,31,-1,-1,-1,-1,-1,-1,-1,-1,-1,-1,-1,-1,-1],"loss_changes":[5.420993E2,3.3506454E1,6.0449677E1,0E0,5.335884E0,9.194992E0,9.413666E0,3.9246845E-1,7.203131E-1,1.8217723E0,1.9038277E0,4.3819427E-1,0E0,0E0,0E0,9.494901E-2,1.16289616E-1,2.083885E-1,4.050243E-2,1.284275E-1,0E0,0E0,0E0,0E0,0E0,0E0,0E0,0E0,0E0,0E0,0E0,0E0,0E0],"parents":[2147483647,0,0,1,1,2,2,4,4,5,5,6,6,7,7,8,8,9,9,10,10,11,11,15,15,16,16,17,17,18,18,19,19],"right_children":[2,4,6,-1,8,10,12,14,16,18,20,22,-1,-1,-1,24,26,28,30,32,-1,-1,-1,-1,-1,-1,-1,-1,-1,-1,-1,-1,-1],"split_conditions":[5E-1,0E0,1E0,-2.7537644E-2,-4.4444445E-1,-5.555556E-1,-3.3333334E-1,-7.777778E-1,2.2222222E-1,-8.888889E-1,3.3333334E-1,-1E0,4.754789E-2,-2.4287343E-2,-1.4803156E-2,2.5714287E-1,-2.9655275E-1,-6.0708153E-1,-1.1233816E0,3.3333334E-1,2.4303634E-2,1.5989505E-2,3.1656455E-2,-9.680264E-3,-4.90039E-3,-1.6653065E-3,-4.577414E-3,-1.6425061E-4,-8.202116E-3,2.3126889E-3,8.454379E-3,1.7739015E-2,1.3139763E-2],"split_indices":[0,0,0,0,3,3,3,3,3,3,3,3,0,0,0,11,2,1,1,6,0,0,0,0,0,0,0,0,0,0,0,0,0],"split_type":[0,0,0,0,0,0,0,0,0,0,0,0,0,0,0,0,0,0,0,0,0,0,0,0,0,0,0,0,0,0,0,0,0],"sum_hessian":[7.5E2,4.3E2,3.2E2,2.98E2,1.32E2,1.59E2,1.61E2,3.1E1,1.01E2,3.2E1,1.27E2,5E1,1.11E2,1.5E1,1.6E1,4.1E1,6E1,1.4E1,1.8E1,7.2E1,5.5E1,5E0,4.5E1,3.3E1,8E0,2E1,4E1,4E0,1E1,2E0,1.6E1,4.4E1,2.8E1],"tree_param":{"num_deleted":"0","num_feature":"14","num_nodes":"33","size_leaf_vector":"1"}},{"base_weights":[4.1174112E-4,-7.106274E-1,9.5510787E-1,-2.6714278E-2,-3.0096304E-1,5.2576244E-1,1.3732569E0,-6.48142E-1,-1.8909355E-1,-1.4975392E-2,6.2601E-1,9.4270635E-1,4.5627363E-2,-2.360426E-2,-1.4385183E-2,-2.876769E-1,-1.1811657E-1,-1.9680932E-1,2.1356498E-1,5.060159E-1,2.3587542E-2,2.867335E-2,5.7091285E-3,-1.0573528E-2,-6.7323274E-3,-2.7133517E-3,-5.9083863E-3,-1.6030812E-4,-7.978423E-3,8.0449665E-3,3.4281039E-3,1.240345E-2,1.7281558E-2],"categories":[],"categories_nodes":[],"categories_segments":[],"categories_sizes":[],"default_left":[0,0,0,0,0,0,0,0,0,0,0,0,0,0,0,0,0,0,0,0,0,0,0,0,0,0,0,0,0,0,0,0,0],"id":5,"left_children":[1,3,5,-1,7,9,11,13,15,17,19,21,-1,-1,-1,23,25,27,29,31,-1,-1,-1,-1,-1,-1,-1,-1,-1,-1,-1,-1,-1],"loss_changes":[5.1047726E2,3.148703E1,5.6907257E1,0E0,5.0429935E0,8.682602E0,8.865082E0,3.7101364E-1,6.7972994E-1,1.1224978E0,2.1979256E0,2.5086975E-1,0E0,0E0,0E0,9.302187E-2,1.152488E-1,1.9714254E-1,3.4415364E-2,2.8047752E-1,0E0,0E0,0E0,0E0,0E0,0E0,0E0,0E0,0E0,0E0,0E0,0E0,0E0],"parents":[2147483647,0,0,1,1,2,2,4,4,5,5,6,6,7,7,8,8,9,9,10,10,11,11,15,15,16,16,17,17,18,18,19,19],"right_children":[2,4,6,-1,8,10,12,14,16,18,20,22,-1,-1,-1,24,26,28,30,32,-1,-1,-1,-1,-1,-1,-1,-1,-1,-1,-1,-1,-1],"split_conditions":[5E-1,0E0,1E0,-2.6714278E-2,-4.4444445E-1,-6.666667E-1,-4.4444445E-1,-7.777778E-1,2.2222222E-1,-8.888889E-1,3.3333334E-1,5.5831146E-1,4.5627363E-2,-2.360426E-2,-1.4385183E-2,-1.1111111E-1,-2.0609243E-2,-6.0708153E-1,6.5094155E-1,-1.1111111E-1,2.3587542E-2,2.867335E-2,5.7091285E-3,-1.0573528E-2,-6.7323274E-3,-2.7133517E-3,-5.9083863E-3,-1.6030812E-4,-7.978423E-3,8.0449665E-3,3.4281039E-3,1.240345E-2,1.7281558E-2],"split_indices":[0,0,0,0,3,3,3,3,3,3,3,1,0,0,0,3,8,1,8,3,0,0,0,0,0,0,0,0,0,0,0,0,0],"split_type":[0,0,0,0,0,0,0,0,0,0,0,0,0,0,0,0,0,0,0,0,0,0,0,0,0,0,0,0,0,0,0,0,0],"sum_hessian":[7.5E2,4.3E2,3.2E2,2.98E2,1.32E2,1.59E2,1.61E2,3.1E1,1.01E2,2.5E1,1.34E2,4.3E1,1.18E2,1.5E1,1.6E1,4.1E1,6E1,1.4E1,1.1E1,7.9E1,5.5E1,4.2E1,1E0,1.8E1,2.3E1,4.6E1,1.4E1,4E0,1E1,6E0,5E0,3.7E1,4.2E1],"tree_param":{"num_deleted":"0","num_feature":"14","num_nodes":"33","size_leaf_vector":"1"}},{"base_weights":[4.6064946E-4,-6.895188E-1,9.2688024E-1,-2.591553E-2,-2.924147E-1,5.103434E-1,1.3325531E0,-6.298849E-1,-1.8367487E-1,-8.4248826E-2,5.958869E-1,9.5497894E-1,4.4777595E-2,-2.2940392E-2,-1.3979012E-2,-2.5483167E-1,-9.15094E-2,-2.3503104E-1,1.0511471E-1,4.787223E-1,2.2892553E-2,7.5602925E-1,3.239509E-2,-8.909996E-3,-4.409016E-3,1.6703545E-3,-3.0921951E-3,-1.0062905E-3,-8.954002E-3,5.7530045E-3,-5.967228E-4,1.0112601E-2,1.5963571E-2,2.32006E-2,5.6234905E-3],"categories":[],"categories_nodes":[],"categories_segments":[],"categories_sizes":[],"default_left":[0,0,0,0,0,0,0,0,0,0,0,0,0,0,0,0,0,0,0,0,0,0,0,0,0,0,0,0,0,0,0,0,0,0,0],"id":6,"left_children":[1,3,5,-1,7,9,11,13,15,17,19,21,-1,-1,-1,23,25,27,29,31,-1,33,-1,-1,-1,-1,-1,-1,-1,-1,-1,-1,-1,-1,-1],"loss_changes":[4.8068616E2,2.9584671E1,5.35618E1,0E0,4.7649326E0,8.188362E0,8.363373E0,3.5073376E-1,6.4561677E-1,6.243109E-1,2.3772583E0,4.5046616E-1,0E0,0E0,0E0,2.1561265E-1,8.403316E-2,1.4336681E-1,1.1213428E-1,4.6347427E-1,0E0,8.1588745E-2,0E0,0E0,0E0,0E0,0E0,0E0,0E0,0E0,0E0,0E0,0E0,0E0,0E0],"parents":[2147483647,0,0,1,1,2,2,4,4,5,5,6,6,7,7,8,8,9,9,10,10,11,11,15,15,16,16,17,17,18,18,19,19,21,21],"right_children":[2,4,6,-1,8,10,12,14,16,18,20,22,-1,-1,-1,24,26,28,30,32,-1,34,-1,-1,-1,-1,-1,-1,-1,-1,-1,-1,-1,-1,-1],"split_conditions":[5E-1,0E0,1E0,-2.591553E-2,-4.4444445E-1,-7.777778E-1,-3.3333334E-1,-7.777778E-1,4.4444445E-1,-7.1428573E-1,3.3333334E-1,-7.777778E-1,4.4777595E-2,-2.2940392E-2,-1.3979012E-2,2.5714287E-1,-9.259355E-1,-6.276698E-1,-5.027097E-1,-4.4444445E-1,2.2892553E-2,4.878903E-1,3.239509E-2,-8.909996E-3,-4.409016E-3,1.6703545E-3,-3.0921951E-3,-1.0062905E-3,-8.954002E-3,5.7530045E-3,-5.967228E-4,1.0112601E-2,1.5963571E-2,2.32006E-2,5.6234905E-3],"split_indices":[0,0,0,0,3,3,3,3,3,11,3,3,0,0,0,11,7,1,7,3,0,1,0,0,0,0,0,0,0,0,0,0,0,0,0],"split_type":[0,0,0,0,0,0,0,0,0,0,0,0,0,0,0,0,0,0,0,0,0,0,0,0,0,0,0,0,0,0,0,0,0,0,0],"sum_hessian":[7.5E2,4.3E2,3.2E2,2.98E2,1.32E2,1.59E2,1.61E2,3.1E1,1.01E2,2E1,1.39E2,5E1,1.11E2,1.5E1,1.6E1,5.6E1,4.5E1,1.1E1,9E0,8.4E1,5.5E1,2.2E1,2.8E1,3.9E1,1.7E1,3E0,4.2E1,3E0,8E0,5E0,4E0,2.5E1,5.9E1,2.1E1,1E0],"tree_param":{"num_deleted":"0","num_feature":"14","num_nodes":"35","size_leaf_vector":"1"}},{"base_weights":[5.434801E-4,-6.6901326E-1,8.995416E-1,-2.5140665E-2,-2.8403065E-1,4.9530914E-1,1.2932308E0,-5.5126977E-1,-1.5463161E-1,5.4095823E-2,6.0518986E-1,9.2753E-1,4.3446258E-2,-2.2295194E-2,-1.2657676E-2,-2.1710673E-1,-8.879495E-2,-1.8677483E-1,2.4140973E-1,4.9302217E-1,2.2218043E-2,7.346017E-1,3.1456746E-2,-8.335473E-3,-4.7908598E-3,-6.719956E-4,-3.514284E-3,-1.7286658E-4,-7.5622126E-3,1.8161153E-3,7.7738357E-3,1.6315665E-2,1.1914265E-2,2.2536222E-2,5.539137E-3],"categories":[],"categories_nodes":[],"categories_segments":[],"categories_sizes":[],"default_left":[0,0,0,0,0,0,0,0,0,0,0,0,0,0,0,0,0,0,0,0,0,0,0,0,0,0,0,0,0,0,0,0,0,0,0],"id":7,"left_children":[1,3,5,-1,7,9,11,13,15,17,19,21,-1,-1,-1,23,25,27,29,31,-1,33,-1,-1,-1,-1,-1,-1,-1,-1,-1,-1,-1,-1,-1],"loss_changes":[4.5265143E2,2.7805191E1,5.044403E1,0E0,4.513961E0,7.7241974E0,7.838196E0,7.5379086E-1,3.550191E-1,1.5339973E0,1.5790367E0,4.2056656E-1,0E0,0E0,0E0,1.1604476E-1,8.395529E-2,1.7584646E-1,4.520285E-2,1.3980484E-1,0E0,7.134724E-2,0E0,0E0,0E0,0E0,0E0,0E0,0E0,0E0,0E0,0E0,0E0,0E0,0E0],"parents":[2147483647,0,0,1,1,2,2,4,4,5,5,6,6,7,7,8,8,9,9,10,10,11,11,15,15,16,16,17,17,18,18,19,19,21,21],"right_children":[2,4,6,-1,8,10,12,14,16,18,20,22,-1,-1,-1,24,26,28,30,32,-1,34,-1,-1,-1,-1,-1,-1,-1,-1,-1,-1,-1,-1,-1],"split_conditions":[5E-1,0E0,1E0,-2.5140665E-2,-2.2222222E-1,-5.555556E-1,-3.3333334E-1,-7.777778E-1,4.4444445E-1,-8.888889E-1,3.3333334E-1,-7.777778E-1,4.3446258E-2,-2.2295194E-2,-1.2657676E-2,0E0,-2.9655275E-1,-6.0708153E-1,-1.1233816E0,3.3333334E-1,2.2218043E-2,4.878903E-1,3.1456746E-2,-8.335473E-3,-4.7908598E-3,-6.719956E-4,-3.514284E-3,-1.7286658E-4,-7.5622126E-3,1.8161153E-3,7.7738357E-3,1.6315665E-2,1.1914265E-2,2.2536222E-2,5.539137E-3],"split_indices":[0,0,0,0,3,3,3,3,3,3,3,3,0,0,0,4,2,1,1,6,0,1,0,0,0,0,0,0,0,0,0,0,0,0,0],"split_type":[0,0,0,0,0,0,0,0,0,0,0,0,0,0,0,0,0,0,0,0,0,0,0,0,0,0,0,0,0,0,0,0,0,0,0],"sum_hessian":[7.5E2,4.3E2,3.2E2,2.98E2,1.32E2,1.59E2,1.61E2,4.2E1,9E1,3.2E1,1.27E2,5E1,1.11E2,1.5E1,2.7E1,4.5E1,4.5E1,1.4E1,1.8E1,7.2E1,5.5E1,2.2E1,2.8E1,2E1,2.5E1,1.4E1,3.1E1,4E0,1E1,2E0,1.6E1,4.4E1,2.8E1,2.1E1,1E0],"tree_param":{"num_deleted":"0","num_feature":"14","num_nodes":"35","size_leaf_vector":"1"}},{"base_weights":[6.3085905E-4,-6.491224E-1,8.7303907E-1,-2.4388969E-2,-2.759027E-1,4.807768E-1,1.2550695E0,-5.9536237E-1,-1.7297512E-1,-8.053725E-2,5.6153977E-1,8.6264914E-1,4.168858E-2,-2.166814E-2,-1.322692E-2,-3.0040947E-1,-1.2542641E-1,-2.2372542E-1,9.934229E-2,4.513397E-1,7.187802E-1,1.4017202E-2,2.7040863E-2,-4.503026E-3,-1.0086212E-2,-1.4264813E-3,-4.813657E-3,-9.797582E-4,-8.513569E-3,5.454565E-3,-5.849412E-4,9.51782E-3,1.5057547E-2,2.1858087E-2,9.071373E-3],"categories":[],"categories_nodes":[],"categories_segments":[],"categories_sizes":[],"default_left":[0,0,0,0,0,0,0,0,0,0,0,0,0,0,0,0,0,0,0,0,0,0,0,0,0,0,0,0,0,0,0,0,0,0,0],"id":8,"left_children":[1,3,5,-1,7,9,11,13,15,17,19,21,-1,-1,-1,23,25,27,29,31,33,-1,-1,-1,-1,-1,-1,-1,-1,-1,-1,-1,-1,-1,-1],"loss_changes":[4.2627115E2,2.613115E1,4.750038E1,0E0,4.270218E0,7.2985687E0,7.354889E0,3.0884743E-1,5.803735E-1,5.6311446E-1,2.1014938E0,2.5237274E-1,0E0,0E0,0E0,9.4813585E-2,1.9969392E-1,1.2843812E-1,1.015605E-1,4.1719246E-1,8.731842E-3,0E0,0E0,0E0,0E0,0E0,0E0,0E0,0E0,0E0,0E0,0E0,0E0,0E0,0E0],"parents":[2147483647,0,0,1,1,2,2,4,4,5,5,6,6,7,7,8,8,9,9,10,10,11,11,15,15,16,16,17,17,18,18,19,19,20,20],"right_children":[2,4,6,-1,8,10,12,14,16,18,20,22,-1,-1,-1,24,26,28,30,32,34,-1,-1,-1,-1,-1,-1,-1,-1,-1,-1,-1,-1,-1,-1],"split_conditions":[5E-1,0E0,1E0,-2.4388969E-2,-4.4444445E-1,-7.777778E-1,-4.4444445E-1,-7.777778E-1,0E0,-7.1428573E-1,3.3333334E-1,-1E0,4.168858E-2,-2.166814E-2,-1.322692E-2,-4.40059E-1,-2.9655275E-1,-6.276698E-1,-5.027097E-1,-4.4444445E-1,5.688203E-1,1.4017202E-2,2.7040863E-2,-4.503026E-3,-1.0086212E-2,-1.4264813E-3,-4.813657E-3,-9.797582E-4,-8.513569E-3,5.454565E-3,-5.849412E-4,9.51782E-3,1.5057547E-2,2.1858087E-2,9.071373E-3],"split_indices":[0,0,0,0,3,3,3,3,3,11,3,3,0,0,0,1,2,1,7,3,1,0,0,0,0,0,0,0,0,0,0,0,0,0,0],"split_type":[0,0,0,0,0,0,0,0,0,0,0,0,0,0,0,0,0,0,0,0,0,0,0,0,0,0,0,0,0,0,0,0,0,0,0],"sum_hessian":[7.5E2,4.3E2,3.2E2,2.98E2,1.32E2,1.59E2,1.61E2,3.1E1,1.01E2,2E1,1.39E2,4.3E1,1.18E2,1.5E1,1.6E1,2.6E1,7.5E1,1.1E1,9E0,8.4E1,5.5E1,5E0,3.8E1,6E0,2E1,2.4E1,5.1E1,3E0,8E0,5E0,4E0,2.5E1,5.9E1,5.3E1,2E0],"tree_param":{"num_deleted":"0","num_feature":"14","num_nodes":"35","size_leaf_vector":"1"}},{"base_weights":[6.831967E-4,-6.298346E-1,8.472642E-1,-2.3659743E-2,-2.680446E-1,4.666715E-1,1.2179282E0,-5.78592E-1,-1.6799007E-1,-1.4896576E-2,5.5596113E-1,8.73627E-1,4.0915012E-2,-2.105872E-2,-1.2853457E-2,-2.3399942E-1,-8.254393E-2,-1.7723653E-1,1.8926974E-1,4.497459E-1,6.977692E-1,6.9075024E-1,2.9656261E-2,-8.1936E-3,-4.021943E-3,1.8201505E-3,-2.8184005E-3,-1.8381141E-4,-7.1670343E-3,7.277806E-3,2.8654109E-3,1.0946991E-2,1.542801E-2,2.121449E-2,8.889946E-3,2.118755E-2,5.2457927E-3],"categories":[],"categories_nodes":[],"categories_segments":[],"categories_sizes":[],"default_left":[0,0,0,0,0,0,0,0,0,0,0,0,0,0,0,0,0,0,0,0,0,0,0,0,0,0,0,0,0,0,0,0,0,0,0,0,0],"id":9,"left_children":[1,3,5,-1,7,9,11,13,15,17,19,21,-1,-1,-1,23,25,27,29,31,33,35,-1,-1,-1,-1,-1,-1,-1,-1,-1,-1,-1,-1,-1,-1,-1],"loss_changes":[4.014057E2,2.45542E1,4.471576E1,0E0,4.0353346E0,6.8881264E0,6.94664E0,2.919674E-1,5.559895E-1,8.952986E-1,1.7195778E0,3.8894653E-1,0E0,0E0,0E0,1.8622613E-1,8.082035E-2,1.5680727E-1,3.682214E-2,2.5029373E-1,1.3256073E-3,6.0435295E-2,0E0,0E0,0E0,0E0,0E0,0E0,0E0,0E0,0E0,0E0,0E0,0E0,0E0,0E0,0E0],"parents":[2147483647,0,0,1,1,2,2,4,4,5,5,6,6,7,7,8,8,9,9,10,10,11,11,15,15,16,16,17,17,18,18,19,19,20,20,21,21],"right_children":[2,4,6,-1,8,10,12,14,16,18,20,22,-1,-1,-1,24,26,28,30,32,34,36,-1,-1,-1,-1,-1,-1,-1,-1,-1,-1,-1,-1,-1,-1,-1],"split_conditions":[5E-1,0E0,1E0,-2.3659743E-2,-4.4444445E-1,-6.666667E-1,-3.3333334E-1,-7.777778E-1,4.4444445E-1,-8.888889E-1,3.3333334E-1,-7.777778E-1,4.0915012E-2,-2.105872E-2,-1.2853457E-2,2.5714287E-1,-9.259355E-1,-6.0708153E-1,6.5094155E-1,-1.1111111E-1,5.688203E-1,4.878903E-1,2.9656261E-2,-8.1936E-3,-4.021943E-3,1.8201505E-3,-2.8184005E-3,-1.8381141E-4,-7.1670343E-3,7.277806E-3,2.8654109E-3,1.0946991E-2,1.542801E-2,2.121449E-2,8.889946E-3,2.118755E-2,5.2457927E-3],"split_indices":[0,0,0,0,3,3,3,3,3,3,3,3,0,0,0,11,7,1,8,3,1,1,0,0,0,0,0,0,0,0,0,0,0,0,0,0,0],"split_type":[0,0,0,0,0,0,0,0,0,0,0,0,0,0,0,0,0,0,0,0,0,0,0,0,0,0,0,0,0,0,0,0,0,0,0,0,0],"sum_hessian":[7.5E2,4.3E2,3.2E2,2.98E2,1.32E2,1.59E2,1.61E2,3.1E1,1.01E2,2.5E1,1.34E2,5E1,1.11E2,1.5E1,1.6E1,5.6E1,4.5E1,1.4E1,1.1E1,7.9E1,5.5E1,2.2E1,2.8E1,3.9E1,1.7E1,3E0,4.2E1,4E0,1E1,6E0,5E0,3.7E1,4.2E1,5.3E1,2E0,2.1E1,1E0],"tree_param":{"num_deleted":"0","num_feature":"14","num_nodes":"37","size_leaf_vector":"1"}},{"base_weights":[7.765177E-4,-6.1110383E-1,8.223331E-1,-2.2952328E-2,-2.6035762E-1,4.530418E-1,1.1819891E0,-5.0638914E-1,-1.4123993E-1,-7.6552585E-2,5.2924496E-1,8.48518E-1,3.969852E-2,-2.0466445E-2,-3.8783193E-1,-1.9932005E-1,-8.008936E-2,-2.1298085E-1,9.48166E-2,4.2542776E-1,2.0321213E-2,6.71177E-1,2.8797256E-2,-1.0023112E-2,-1.503862E-2,-7.713316E-3,-4.349308E-3,1.7791986E-3,-2.7358164E-3,1.3506055E-4,-7.707829E-3,5.1735663E-3,-5.192835E-4,8.963928E-3,1.419631E-2,2.0580815E-2,5.1671076E-3],"categories":[],"categories_nodes":[],"categories_segments":[],"categories_sizes":[],"default_left":[0,0,0,0,0,0,0,0,0,0,0,0,0,0,0,0,0,0,0,0,0,0,0,0,0,0,0,0,0,0,0,0,0,0,0,0,0],"id":10,"left_children":[1,3,5,-1,7,9,11,13,15,17,19,21,-1,-1,23,25,27,29,31,33,-1,35,-1,-1,-1,-1,-1,-1,-1,-1,-1,-1,-1,-1,-1,-1,-1],"loss_changes":[3.7802597E2,2.307727E1,4.2099014E1,0E0,3.82627E0,6.497593E0,6.510269E0,6.317673E-1,3.07235E-1,5.111658E-1,1.8647919E0,3.631897E-1,0E0,0E0,3.1986237E-3,1.0718858E-1,7.661301E-2,1.1584872E-1,9.00348E-2,3.7291718E-1,0E0,5.2254677E-2,0E0,0E0,0E0,0E0,0E0,0E0,0E0,0E0,0E0,0E0,0E0,0E0,0E0,0E0,0E0],"parents":[2147483647,0,0,1,1,2,2,4,4,5,5,6,6,7,7,8,8,9,9,10,10,11,11,14,14,15,15,16,16,17,17,18,18,19,19,21,21],"right_children":[2,4,6,-1,8,10,12,14,16,18,20,22,-1,-1,24,26,28,30,32,34,-1,36,-1,-1,-1,-1,-1,-1,-1,-1,-1,-1,-1,-1,-1,-1,-1],"split_conditions":[5E-1,0E0,1E0,-2.2952328E-2,-2.2222222E-1,-7.777778E-1,-3.3333334E-1,-7.777778E-1,4.4444445E-1,-7.1428573E-1,3.3333334E-1,-7.777778E-1,3.969852E-2,-2.0466445E-2,1.5153571E0,0E0,-9.259355E-1,-6.666667E-1,-5.027097E-1,-4.4444445E-1,2.0321213E-2,4.878903E-1,2.8797256E-2,-1.0023112E-2,-1.503862E-2,-7.713316E-3,-4.349308E-3,1.7791986E-3,-2.7358164E-3,1.3506055E-4,-7.707829E-3,5.1735663E-3,-5.192835E-4,8.963928E-3,1.419631E-2,2.0580815E-2,5.1671076E-3],"split_indices":[0,0,0,0,3,3,3,3,3,11,3,3,0,0,8,4,7,6,7,3,0,1,0,0,0,0,0,0,0,0,0,0,0,0,0,0,0],"split_type":[0,0,0,0,0,0,0,0,0,0,0,0,0,0,0,0,0,0,0,0,0,0,0,0,0,0,0,0,0,0,0,0,0,0,0,0,0],"sum_hessian":[7.5E2,4.3E2,3.2E2,2.98E2,1.32E2,1.59E2,1.61E2,4.2E1,9E1,2E1,1.39E2,5E1,1.11E2,1.5E1,2.7E1,4.5E1,4.5E1,1.1E1,9E0,8.4E1,5.5E1,2.2E1,2.8E1,2.1E1,6E0,2E1,2.5E1,3E0,4.2E1,2E0,9E0,5E0,4E0,2.5E1,5.9E1,2.1E1,1E0],"tree_param":{"num_deleted":"0","num_feature":"14","num_nodes":"37","size_leaf_vector":"1"}},{"base_weights":[8.2419557E-4,-5.929598E-1,7.9808307E-1,-2.2266058E-2,-2.5298712E-1,4.3970406E-1,1.1471112E0,-4.9225622E-1,-1.371458E-1,4.6693556E-2,5.375919E-1,8.241321E-1,3.8518198E-2,-1.9890826E-2,-3.7709203E-1,-1.9360271E-1,-7.7707455E-2,-1.6807841E-1,2.1379282E-1,4.3830815E-1,6.574155E-1,6.5216124E-1,2.7963132E-2,-9.736087E-3,-1.4651912E-2,-7.4929353E-3,-4.2238496E-3,-1.3366472E-3,-3.9492273E-3,-1.1875748E-4,-6.821954E-3,1.1912202E-3,6.958132E-3,1.4614297E-2,1.0422465E-2,1.9991498E-2,8.305726E-3,1.9991456E-2,5.0896024E-3],"categories":[],"categories_nodes":[],"categories_segments":[],"categories_sizes":[],"default_left":[0,0,0,0,0,0,0,0,0,0,0,0,0,0,0,0,0,0,0,0,0,0,0,0,0,0,0,0,0,0,0,0,0,0,0,0,0,0,0],"id":11,"left_children":[1,3,5,-1,7,9,11,13,15,17,19,21,-1,-1,23,25,27,29,31,33,35,37,-1,-1,-1,-1,-1,-1,-1,-1,-1,-1,-1,-1,-1,-1,-1,-1,-1],"loss_changes":[3.559963E2,2.168042E1,3.9647675E1,0E0,3.618884E0,6.130247E0,6.1011047E0,5.956478E-1,2.903247E-1,1.2202457E0,1.2346077E0,3.3908463E-1,0E0,0E0,5.2900314E-3,1.01260185E-1,7.638419E-2,1.4513382E-1,5.080706E-2,1.5478706E-1,6.620407E-3,4.476261E-2,0E0,0E0,0E0,0E0,0E0,0E0,0E0,0E0,0E0,0E0,0E0,0E0,0E0,0E0,0E0,0E0,0E0],"parents":[2147483647,0,0,1,1,2,2,4,4,5,5,6,6,7,7,8,8,9,9,10,10,11,11,14,14,15,15,16,16,17,17,18,18,19,19,20,20,21,21],"right_children":[2,4,6,-1,8,10,12,14,16,18,20,22,-1,-1,24,26,28,30,32,34,36,38,-1,-1,-1,-1,-1,-1,-1,-1,-1,-1,-1,-1,-1,-1,-1,-1,-1],"split_conditions":[5E-1,0E0,1E0,-2.2266058E-2,-2.2222222E-1,-5.555556E-1,-3.3333334E-1,-7.777778E-1,4.4444445E-1,-8.888889E-1,3.3333334E-1,-7.777778E-1,3.8518198E-2,-1.9890826E-2,1.5153571E0,0E0,3.9252222E-1,-6.0708153E-1,-1.1233816E0,3.3333334E-1,5.688203E-1,4.878903E-1,2.7963132E-2,-9.736087E-3,-1.4651912E-2,-7.4929353E-3,-4.2238496E-3,-1.3366472E-3,-3.9492273E-3,-1.1875748E-4,-6.821954E-3,1.1912202E-3,6.958132E-3,1.4614297E-2,1.0422465E-2,1.9991498E-2,8.305726E-3,1.9991456E-2,5.0896024E-3],"split_indices":[0,0,0,0,3,3,3,3,3,3,3,3,0,0,8,4,10,1,1,6,1,1,0,0,0,0,0,0,0,0,0,0,0,0,0,0,0,0,0],"split_type":[0,0,0,0,0,0,0,0,0,0,0,0,0,0,0,0,0,0,0,0,0,0,0,0,0,0,0,0,0,0,0,0,0,0,0,0,0,0,0],"sum_hessian":[7.5E2,4.3E2,3.2E2,2.98E2,1.32E2,1.59E2,1.61E2,4.2E1,9E1,3.2E1,1.27E2,5E1,1.11E2,1.5E1,2.7E1,4.5E1,4.5E1,1.4E1,1.8E1,7.2E1,5.5E1,2.2E1,2.8E1,2.1E1,6E0,2E1,2.5E1,2.9E1,1.6E1,4E0,1E1,2E0,1.6E1,4.4E1,2.8E1,5.3E1,2E0,2.1E1,1E0],"tree_param":{"num_deleted":"0","num_feature":"14","num_nodes":"39","size_leaf_vector":"1"}},{"base_weights":[8.8275434E-4,-5.753649E-1,7.7459574E-1,-2.1600313E-2,-2.458583E-1,4.2685384E-1,1.113263E0,-5.264447E-1,-1.5174732E-1,-7.311191E-2,4.9879974E-1,7.6662993E-1,3.696224E-2,-1.93314E-2,-1.1770991E-2,-2.116765E-1,-7.5491205E-2,-2.0264481E-1,8.963877E-2,4.0109238E-1,6.3819844E-1,1.2354068E-2,2.404685E-2,-7.4523063E-3,-3.6098093E-3,-1.698724E-3,-5.175558E-3,2.0176767E-4,-7.355743E-3,4.9056527E-3,-5.084574E-4,9.61598E-3,1.416973E-2,1.9402862E-2,8.13961E-3],"categories":[],"categories_nodes":[],"categories_segments":[],"categories_sizes":[],"default_left":[0,0,0,0,0,0,0,0,0,0,0,0,0,0,0,0,0,0,0,0,0,0,0,0,0,0,0,0,0,0,0,0,0,0,0],"id":12,"left_children":[1,3,5,-1,7,9,11,13,15,17,19,21,-1,-1,-1,23,25,27,29,31,33,-1,-1,-1,-1,-1,-1,-1,-1,-1,-1,-1,-1,-1,-1],"loss_changes":[3.3527927E2,2.0365158E1,3.7328583E1,0E0,3.432145E0,5.791746E0,5.7272797E0,2.6898193E-1,4.4558668E-1,4.6087778E-1,1.6508598E0,2.1528244E-1,0E0,0E0,0E0,1.580236E-1,7.443994E-2,1.08545125E-1,8.15214E-2,3.3637142E-1,4.6348572E-4,0E0,0E0,0E0,0E0,0E0,0E0,0E0,0E0,0E0,0E0,0E0,0E0,0E0,0E0],"parents":[2147483647,0,0,1,1,2,2,4,4,5,5,6,6,7,7,8,8,9,9,10,10,11,11,15,15,16,16,17,17,18,18,19,19,20,20],"right_children":[2,4,6,-1,8,10,12,14,16,18,20,22,-1,-1,-1,24,26,28,30,32,34,-1,-1,-1,-1,-1,-1,-1,-1,-1,-1,-1,-1,-1,-1],"split_conditions":[5E-1,0E0,1E0,-2.1600313E-2,-3.1428573E-1,-7.777778E-1,-4.4444445E-1,-7.777778E-1,4.4444445E-1,-7.1428573E-1,3.3333334E-1,-1E0,3.696224E-2,-1.93314E-2,-1.1770991E-2,2.5714287E-1,6.569198E-1,-6.666667E-1,-5.027097E-1,-1.1111111E-1,5.688203E-1,1.2354068E-2,2.404685E-2,-7.4523063E-3,-3.6098093E-3,-1.698724E-3,-5.175558E-3,2.0176767E-4,-7.355743E-3,4.9056527E-3,-5.084574E-4,9.61598E-3,1.416973E-2,1.9402862E-2,8.13961E-3],"split_indices":[0,0,0,0,11,3,3,3,3,11,3,3,0,0,0,11,10,6,7,3,1,0,0,0,0,0,0,0,0,0,0,0,0,0,0],"split_type":[0,0,0,0,0,0,0,0,0,0,0,0,0,0,0,0,0,0,0,0,0,0,0,0,0,0,0,0,0,0,0,0,0,0,0],"sum_hessian":[7.5E2,4.3E2,3.2E2,2.98E2,1.32E2,1.59E2,1.61E2,3.2E1,1E2,2E1,1.39E2,4.3E1,1.18E2,1.5E1,1.7E1,5.5E1,4.5E1,1.1E1,9E0,8.4E1,5.5E1,5E0,3.8E1,3.8E1,1.7E1,3.9E1,6E0,2E0,9E0,5E0,4E0,4.2E1,4.2E1,5.3E1,2E0],"tree_param":{"num_deleted":"0","num_feature":"14","num_nodes":"35","size_leaf_vector":"1"}},{"base_weights":[9.2458614E-4,-5.5826783E-1,7.517377E-1,-2.095447E-2,-2.3885125E-1,4.143518E-1,1.080318E0,-4.656894E-1,-1.2903927E-1,-1.4808834E-2,4.9393567E-1,7.762465E-1,3.6274E-2,-1.87877E-2,-3.5730484E-1,-1.8189745E-1,-7.3375896E-2,-1.9716166E-1,1.3206068E-1,3.9983553E-1,1.8586326E-2,6.132275E-1,2.6363108E-2,-9.196764E-3,-1.3972468E-2,-7.081035E-3,-3.9352584E-3,-3.7272976E-4,-2.9896186E-3,-7.2748034E-4,-7.5631416E-3,4.6681995E-3,-2.9637462E-3,9.688437E-3,1.3754525E-2,1.8794138E-2,4.8279474E-3],"categories":[],"categories_nodes":[],"categories_segments":[],"categories_sizes":[],"default_left":[0,0,0,0,0,0,0,0,0,0,0,0,0,0,0,0,0,0,0,0,0,0,0,0,0,0,0,0,0,0,0,0,0,0,0,0,0],"id":13,"left_children":[1,3,5,-1,7,9,11,13,15,17,19,21,-1,-1,23,25,27,29,31,33,-1,35,-1,-1,-1,-1,-1,-1,-1,-1,-1,-1,-1,-1,-1,-1,-1],"loss_changes":[3.1572626E2,1.9136307E1,3.513791E1,0E0,3.2528763E0,5.4719963E0,5.4067993E0,5.245657E-1,2.5439918E-1,7.2237116E-1,1.3479576E0,3.1349564E-1,0E0,0E0,1.1307716E-2,9.5351934E-2,7.2439566E-2,1.07890606E-1,9.690726E-2,2.1268177E-1,0E0,3.6953926E-2,0E0,0E0,0E0,0E0,0E0,0E0,0E0,0E0,0E0,0E0,0E0,0E0,0E0,0E0,0E0],"parents":[2147483647,0,0,1,1,2,2,4,4,5,5,6,6,7,7,8,8,9,9,10,10,11,11,14,14,15,15,16,16,17,17,18,18,19,19,21,21],"right_children":[2,4,6,-1,8,10,12,14,16,18,20,22,-1,-1,24,26,28,30,32,34,-1,36,-1,-1,-1,-1,-1,-1,-1,-1,-1,-1,-1,-1,-1,-1,-1],"split_conditions":[5E-1,0E0,1E0,-2.095447E-2,-2.2222222E-1,-6.666667E-1,-3.3333334E-1,-7.777778E-1,4.4444445E-1,-7.1428573E-1,3.3333334E-1,-7.777778E-1,3.6274E-2,-1.87877E-2,1.5153571E0,0E0,-2.9655275E-1,-6.276698E-1,8.8903505E-1,-1.1111111E-1,1.8586326E-2,4.878903E-1,2.6363108E-2,-9.196764E-3,-1.3972468E-2,-7.081035E-3,-3.9352584E-3,-3.7272976E-4,-2.9896186E-3,-7.2748034E-4,-7.5631416E-3,4.6681995E-3,-2.9637462E-3,9.688437E-3,1.3754525E-2,1.8794138E-2,4.8279474E-3],"split_indices":[0,0,0,0,3,3,3,3,3,11,3,3,0,0,8,4,2,1,2,3,0,1,0,0,0,0,0,0,0,0,0,0,0,0,0,0,0],"split_type":[0,0,0,0,0,0,0,0,0,0,0,0,0,0,0,0,0,0,0,0,0,0,0,0,0,0,0,0,0,0,0,0,0,0,0,0,0],"sum_hessian":[7.5E2,4.3E2,3.2E2,2.98E2,1.32E2,1.59E2,1.61E2,4.2E1,9E1,2.5E1,1.34E2,5E1,1.11E2,1.5E1,2.7E1,4.5E1,4.5E1,1.1E1,1.4E1,7.9E1,5.5E1,2.2E1,2.8E1,2.1E1,6E0,2E1,2.5E1,1.4E1,3.1E1,3E0,8E0,1.3E1,1E0,3.7E1,4.2E1,2.1E1,1E0],"tree_param":{"num_deleted":"0","num_feature":"14","num_nodes":"37","size_leaf_vector":"1"}},{"base_weights":[9.5599185E-4,-5.416991E-1,7.2956467E-1,-2.0327937E-2,-2.3210931E-1,4.0214273E-1,1.0484409E0,-5.0338656E-1,-1.4472714E-1,4.1240167E-2,4.9204618E-1,7.539392E-1,3.51955E-2,-1.8259296E-2,-1.1241314E-2,-2.535211E-1,-1.04172334E-1,-1.5561719E-1,1.9448334E-1,4.0150255E-1,6.012897E-1,5.9585774E-1,2.5599487E-2,-3.4719454E-3,-8.621356E-3,-9.408332E-4,-4.1152327E-3,-7.319998E-5,-6.3328855E-3,7.81312E-4,6.3830335E-3,1.3452697E-2,9.44549E-3,1.8284285E-2,7.60509E-3,1.8255945E-2,4.7555277E-3],"categories":[],"categories_nodes":[],"categories_segments":[],"categories_sizes":[],"default_left":[0,0,0,0,0,0,0,0,0,0,0,0,0,0,0,0,0,0,0,0,0,0,0,0,0,0,0,0,0,0,0,0,0,0,0,0,0],"id":14,"left_children":[1,3,5,-1,7,9,11,13,15,17,19,21,-1,-1,-1,23,25,27,29,31,33,35,-1,-1,-1,-1,-1,-1,-1,-1,-1,-1,-1,-1,-1,-1,-1],"loss_changes":[2.97328E2,1.797615E1,3.309305E1,0E0,3.079884E0,5.171129E0,5.066864E0,2.0534325E-1,4.2362618E-1,1.0257775E0,1.0246677E0,2.9273796E-1,0E0,0E0,0E0,9.270179E-2,1.7832017E-1,1.2695664E-1,5.2975476E-2,1.5561867E-1,4.9362183E-3,3.1020164E-2,0E0,0E0,0E0,0E0,0E0,0E0,0E0,0E0,0E0,0E0,0E0,0E0,0E0,0E0,0E0],"parents":[2147483647,0,0,1,1,2,2,4,4,5,5,6,6,7,7,8,8,9,9,10,10,11,11,15,15,16,16,17,17,18,18,19,19,20,20,21,21],"right_children":[2,4,6,-1,8,10,12,14,16,18,20,22,-1,-1,-1,24,26,28,30,32,34,36,-1,-1,-1,-1,-1,-1,-1,-1,-1,-1,-1,-1,-1,-1,-1],"split_conditions":[5E-1,0E0,1E0,-2.0327937E-2,-4.4444445E-1,-5.555556E-1,-3.3333334E-1,-7.777778E-1,0E0,-8.888889E-1,3.3333334E-1,-7.777778E-1,3.51955E-2,-1.8259296E-2,-1.1241314E-2,-4.40059E-1,-2.9655275E-1,-6.0708153E-1,-1.1233816E0,3.3333334E-1,5.688203E-1,4.878903E-1,2.5599487E-2,-3.4719454E-3,-8.621356E-3,-9.408332E-4,-4.1152327E-3,-7.319998E-5,-6.3328855E-3,7.81312E-4,6.3830335E-3,1.3452697E-2,9.44549E-3,1.8284285E-2,7.60509E-3,1.8255945E-2,4.7555277E-3],"split_indices":[0,0,0,0,3,3,3,3,3,3,3,3,0,0,0,1,2,1,1,6,1,1,0,0,0,0,0,0,0,0,0,0,0,0,0,0,0],"split_type":[0,0,0,0,0,0,0,0,0,0,0,0,0,0,0,0,0,0,0,0,0,0,0,0,0,0,0,0,0,0,0,0,0,0,0,0,0],"sum_hessian":[7.5E2,4.3E2,3.2E2,2.98E2,1.32E2,1.59E2,1.61E2,3.1E1,1.01E2,3.2E1,1.27E2,5E1,1.11E2,1.5E1,1.6E1,2.6E1,7.5E1,1.4E1,1.8E1,7.2E1,5.5E1,2.2E1,2.8E1,6E0,2E1,2.4E1,5.1E1,4E0,1E1,2E0,1.6E1,4.4E1,2.8E1,5.3E1,2E0,2.1E1,1E0],"tree_param":{"num_deleted":"0","num_feature":"14","num_nodes":"37","size_leaf_vector":"1"}},{"base_weights":[1.0156776E-3,-5.2560353E-1,7.0809317E-1,-1.9720139E-2,-2.2549675E-1,3.903881E-1,1.0175049E0,-4.8435393E-1,-1.3868701E-1,-6.849607E-2,4.5643222E-1,7.322742E-1,3.414906E-2,-1.7745754E-2,-1.0865462E-2,-1.9412029E-1,-6.8188086E-2,-1.8769751E-1,8.139525E-2,2.927526E-1,5.2359337E-1,5.7898253E-1,2.4857985E-2,-2.62791E-3,-6.6354377E-3,1.9869125E-3,-2.3731908E-3,3.4469963E-4,-6.86052E-3,4.5390115E-3,-5.6309864E-4,1.0712307E-2,6.808529E-3,1.3179963E-2,1.7690504E-2,1.7733162E-2,4.6841954E-3],"categories":[],"categories_nodes":[],"categories_segments":[],"categories_sizes":[],"default_left":[0,0,0,0,0,0,0,0,0,0,0,0,0,0,0,0,0,0,0,0,0,0,0,0,0,0,0,0,0,0,0,0,0,0,0,0,0],"id":15,"left_children":[1,3,5,-1,7,9,11,13,15,17,19,21,-1,-1,-1,23,25,27,29,31,33,35,-1,-1,-1,-1,-1,-1,-1,-1,-1,-1,-1,-1,-1,-1,-1],"loss_changes":[2.8001498E2,1.6891106E1,3.1157623E1,0E0,2.9215121E0,4.8803215E0,4.748169E0,2.1783924E-1,3.8147008E-1,3.9049017E-1,1.385725E0,2.7331543E-1,0E0,0E0,0E0,1.420517E-1,7.2749704E-2,1.0059556E-1,7.286052E-2,1.00964785E-1,2.866783E-1,2.5604725E-2,0E0,0E0,0E0,0E0,0E0,0E0,0E0,0E0,0E0,0E0,0E0,0E0,0E0,0E0,0E0],"parents":[2147483647,0,0,1,1,2,2,4,4,5,5,6,6,7,7,8,8,9,9,10,10,11,11,15,15,16,16,17,17,18,18,19,19,20,20,21,21],"right_children":[2,4,6,-1,8,10,12,14,16,18,20,22,-1,-1,-1,24,26,28,30,32,34,36,-1,-1,-1,-1,-1,-1,-1,-1,-1,-1,-1,-1,-1,-1,-1],"split_conditions":[5E-1,0E0,1E0,-1.9720139E-2,-3.1428573E-1,-7.777778E-1,-3.3333334E-1,-7.777778E-1,4.4444445E-1,-7.1428573E-1,-1.1111111E-1,-7.777778E-1,3.414906E-2,-1.7745754E-2,-1.0865462E-2,-3.2709184E-1,-9.259355E-1,-6.666667E-1,-5.027097E-1,3.47768E-3,4.4444445E-1,4.878903E-1,2.4857985E-2,-2.62791E-3,-6.6354377E-3,1.9869125E-3,-2.3731908E-3,3.4469963E-4,-6.86052E-3,4.5390115E-3,-5.6309864E-4,1.0712307E-2,6.808529E-3,1.3179963E-2,1.7690504E-2,1.7733162E-2,4.6841954E-3],"split_indices":[0,0,0,0,11,3,3,3,3,11,3,3,0,0,0,8,7,6,7,2,3,1,0,0,0,0,0,0,0,0,0,0,0,0,0,0,0],"split_type":[0,0,0,0,0,0,0,0,0,0,0,0,0,0,0,0,0,0,0,0,0,0,0,0,0,0,0,0,0,0,0,0,0,0,0,0,0],"sum_hessian":[7.5E2,4.3E2,3.2E2,2.98E2,1.32E2,1.59E2,1.61E2,3.2E1,1E2,2E1,1.39E2,5E1,1.11E2,1.5E1,1.7E1,5.5E1,4.5E1,1.1E1,9E0,4.2E1,9.7E1,2.2E1,2.8E1,1.2E1,4.3E1,3E0,4.2E1,2E0,9E0,5E0,4E0,1.9E1,2.3E1,4.6E1,5.1E1,2.1E1,1E0],"tree_param":{"num_deleted":"0","num_feature":"14","num_nodes":"37","size_leaf_vector":"1"}},{"base_weights":[1.0774853E-3,-5.099699E-1,6.872468E-1,-1.9130511E-2,-2.1901953E-1,3.7896302E-1,9.8748237E-1,-4.2850876E-1,-1.176233E-1,3.8071044E-2,4.638886E-1,6.557921E-1,1.0838407E0,-1.7246656E-2,-3.295593E-1,-1.6653876E-1,-6.615082E-2,-1.4753295E-1,1.8259677E-1,3.7869486E-1,5.6666094E-1,1.0878215E-2,2.0647278E-2,2.8217012E-2,3.5038106E-2,-8.429009E-3,-1.3055944E-2,-6.536769E-3,-3.5596665E-3,-1.4424223E-3,-4.7987485E-3,-1.8419982E-5,-6.027066E-3,6.295156E-4,6.011271E-3,1.2716965E-2,8.86477E-3,1.7232547E-2,7.144284E-3],"categories":[],"categories_nodes":[],"categories_segments":[],"categories_sizes":[],"default_left":[0,0,0,0,0,0,0,0,0,0,0,0,0,0,0,0,0,0,0,0,0,0,0,0,0,0,0,0,0,0,0,0,0,0,0,0,0,0,0],"id":16,"left_children":[1,3,5,-1,7,9,11,13,15,17,19,21,23,-1,25,27,29,31,33,35,37,-1,-1,-1,-1,-1,-1,-1,-1,-1,-1,-1,-1,-1,-1,-1,-1,-1,-1],"loss_changes":[2.6369992E2,1.5875595E1,2.9336823E1,0E0,2.774705E0,4.6144104E0,4.466919E0,4.3336105E-1,2.1810305E-1,9.121493E-1,9.061203E-1,1.21486664E-1,3.9553833E-1,0E0,2.1454334E-2,8.72587E-2,7.028408E-2,1.1749098E-1,5.0388098E-2,1.4929962E-1,5.9165955E-3,0E0,0E0,0E0,0E0,0E0,0E0,0E0,0E0,0E0,0E0,0E0,0E0,0E0,0E0,0E0,0E0,0E0,0E0],"parents":[2147483647,0,0,1,1,2,2,4,4,5,5,6,6,7,7,8,8,9,9,10,10,11,11,12,12,14,14,15,15,16,16,17,17,18,18,19,19,20,20],"right_children":[2,4,6,-1,8,10,12,14,16,18,20,22,24,-1,26,28,30,32,34,36,38,-1,-1,-1,-1,-1,-1,-1,-1,-1,-1,-1,-1,-1,-1,-1,-1,-1,-1],"split_conditions":[5E-1,0E0,1E0,-1.9130511E-2,-2.2222222E-1,-5.555556E-1,-5.555556E-1,-7.777778E-1,4.4444445E-1,-8.888889E-1,3.3333334E-1,-1E0,1.1111111E-1,-1.7246656E-2,1.5153571E0,0E0,6.569198E-1,-6.0708153E-1,-1.1233816E0,3.3333334E-1,5.688203E-1,1.0878215E-2,2.0647278E-2,2.8217012E-2,3.5038106E-2,-8.429009E-3,-1.3055944E-2,-6.536769E-3,-3.5596665E-3,-1.4424223E-3,-4.7987485E-3,-1.8419982E-5,-6.027066E-3,6.295156E-4,6.011271E-3,1.2716965E-2,8.86477E-3,1.7232547E-2,7.144284E-3],"split_indices":[0,0,0,0,3,3,3,3,3,3,3,3,3,0,8,4,10,1,1,6,1,0,0,0,0,0,0,0,0,0,0,0,0,0,0,0,0,0,0],"split_type":[0,0,0,0,0,0,0,0,0,0,0,0,0,0,0,0,0,0,0,0,0,0,0,0,0,0,0,0,0,0,0,0,0,0,0,0,0,0,0],"sum_hessian":[7.5E2,4.3E2,3.2E2,2.98E2,1.32E2,1.59E2,1.61E2,4.2E1,9E1,3.2E1,1.27E2,3.8E1,1.23E2,1.5E1,2.7E1,4.5E1,4.5E1,1.4E1,1.8E1,7.2E1,5.5E1,5E0,3.3E1,5E1,7.3E1,2.1E1,6E0,2E1,2.5E1,3.9E1,6E0,4E0,1E1,2E0,1.6E1,4.4E1,2.8E1,5.3E1,2E0],"tree_param":{"num_deleted":"0","num_feature":"14","num_nodes":"39","size_leaf_vector":"1"}},{"base_weights":[1.1345266E-3,-4.94843E-1,6.670697E-1,-1.8558517E-2,-2.1286301E-1,3.6788502E-1,9.58443E-1,-4.165542E-1,-1.1427416E-1,-1.5141308E-2,4.3892798E-1,6.901671E-1,3.2161403E-2,-5.218409E-1,-2.923333E-1,-1.6176212E-1,-6.4301975E-2,-1.7858694E-1,1.16624616E-1,3.5562354E-1,5.5009633E-1,5.4496187E-1,2.344593E-2,-4.046636E-3,-1.6015317E-2,-1.6837799E-3,-9.0272585E-3,-6.350006E-3,-3.4569844E-3,1.9746602E-3,-2.2473342E-3,3.9825917E-4,-6.5486073E-3,4.389538E-3,-1.5276372E-3,8.576271E-3,1.2269726E-2,1.6725142E-2,7.0014E-3,1.6687373E-2,4.4507575E-3],"categories":[],"categories_nodes":[],"categories_segments":[],"categories_sizes":[],"default_left":[0,0,0,0,0,0,0,0,0,0,0,0,0,0,0,0,0,0,0,0,0,0,0,0,0,0,0,0,0,0,0,0,0,0,0,0,0,0,0,0,0],"id":17,"left_children":[1,3,5,-1,7,9,11,13,15,17,19,21,-1,23,25,27,29,31,33,35,37,39,-1,-1,-1,-1,-1,-1,-1,-1,-1,-1,-1,-1,-1,-1,-1,-1,-1,-1,-1],"loss_changes":[2.4837706E2,1.4911026E1,2.7630371E1,0E0,2.6232624E0,4.3604584E0,4.197403E0,4.0983725E-1,2.0554829E-1,5.807783E-1,1.0545826E0,2.5068855E-1,0E0,3.0173302E-2,2.7673006E-2,8.2422495E-2,6.8434104E-2,9.4300926E-2,8.2075536E-2,1.8086052E-1,1.285553E-3,2.0406246E-2,0E0,0E0,0E0,0E0,0E0,0E0,0E0,0E0,0E0,0E0,0E0,0E0,0E0,0E0,0E0,0E0,0E0,0E0,0E0],"parents":[2147483647,0,0,1,1,2,2,4,4,5,5,6,6,7,7,8,8,9,9,10,10,11,11,13,13,14,14,15,15,16,16,17,17,18,18,19,19,20,20,21,21],"right_children":[2,4,6,-1,8,10,12,14,16,18,20,22,-1,24,26,28,30,32,34,36,38,40,-1,-1,-1,-1,-1,-1,-1,-1,-1,-1,-1,-1,-1,-1,-1,-1,-1,-1,-1],"split_conditions":[5E-1,0E0,1E0,-1.8558517E-2,-2.2222222E-1,-6.666667E-1,-3.3333334E-1,-6.666667E-1,4.4444445E-1,-7.1428573E-1,3.3333334E-1,-7.777778E-1,3.2161403E-2,-6.666667E-1,-1.1233816E0,0E0,-9.259355E-1,-6.666667E-1,7.471135E-1,-1.1111111E-1,5.688203E-1,4.878903E-1,2.344593E-2,-4.046636E-3,-1.6015317E-2,-1.6837799E-3,-9.0272585E-3,-6.350006E-3,-3.4569844E-3,1.9746602E-3,-2.2473342E-3,3.9825917E-4,-6.5486073E-3,4.389538E-3,-1.5276372E-3,8.576271E-3,1.2269726E-2,1.6725142E-2,7.0014E-3,1.6687373E-2,4.4507575E-3],"split_indices":[0,0,0,0,3,3,3,3,3,11,3,3,0,6,1,4,7,6,10,3,1,1,0,0,0,0,0,0,0,0,0,0,0,0,0,0,0,0,0,0,0],"split_type":[0,0,0,0,0,0,0,0,0,0,0,0,0,0,0,0,0,0,0,0,0,0,0,0,0,0,0,0,0,0,0,0,0,0,0,0,0,0,0,0,0],"sum_hessian":[7.5E2,4.3E2,3.2E2,2.98E2,1.32E2,1.59E2,1.61E2,4.2E1,9E1,2.5E1,1.34E2,5E1,1.11E2,2.1E1,2.1E1,4.5E1,4.5E1,1.1E1,1.4E1,7.9E1,5.5E1,2.2E1,2.8E1,1E0,2E1,1E0,2E1,2E1,2.5E1,3E0,4.2E1,2E0,9E0,1.2E1,2E0,3.7E1,4.2E1,5.3E1,2E0,2.1E1,1E0],"tree_param":{"num_deleted":"0","num_feature":"14","num_nodes":"41","size_leaf_vector":"1"}},{"base_weights":[1.1785433E-3,-4.8013556E-1,6.474253E-1,-1.8003626E-2,-2.0678428E-1,3.5710657E-1,9.301634E-1,-4.4564536E-1,-1.2669319E-1,-6.423693E-2,4.177573E-1,6.182082E-1,1.020777E0,-1.6311163E-2,-1.0011682E-2,-1.9582708E-1,-7.814921E-2,-1.7374183E-1,7.359264E-2,2.6766935E-1,4.793494E-1,1.02502545E-2,1.9464765E-2,2.6502695E-2,3.3049364E-2,-2.465477E-3,-6.50422E-3,-7.1138196E-4,-3.184066E-3,-5.1348837E-4,-6.721456E-3,4.195665E-3,-6.192398E-4,9.90773E-3,6.130786E-3,1.2081029E-2,1.6182285E-2],"categories":[],"categories_nodes":[],"categories_segments":[],"categories_sizes":[],"default_left":[0,0,0,0,0,0,0,0,0,0,0,0,0,0,0,0,0,0,0,0,0,0,0,0,0,0,0,0,0,0,0,0,0,0,0,0,0],"id":18,"left_children":[1,3,5,-1,7,9,11,13,15,17,19,21,23,-1,-1,25,27,29,31,33,35,-1,-1,-1,-1,-1,-1,-1,-1,-1,-1,-1,-1,-1,-1,-1,-1],"loss_changes":[2.3390767E2,1.4011887E1,2.6016846E1,0E0,2.4879155E0,4.1156044E0,3.9482574E0,1.8073273E-1,3.2365584E-1,3.297394E-1,1.1658859E0,1.08514786E-1,4.0412903E-1,0E0,0E0,7.9938054E-2,9.041533E-2,9.07169E-2,6.5328926E-2,1.02894306E-1,2.3392296E-1,0E0,0E0,0E0,0E0,0E0,0E0,0E0,0E0,0E0,0E0,0E0,0E0,0E0,0E0,0E0,0E0],"parents":[2147483647,0,0,1,1,2,2,4,4,5,5,6,6,7,7,8,8,9,9,10,10,11,11,12,12,15,15,16,16,17,17,18,18,19,19,20,20],"right_children":[2,4,6,-1,8,10,12,14,16,18,20,22,24,-1,-1,26,28,30,32,34,36,-1,-1,-1,-1,-1,-1,-1,-1,-1,-1,-1,-1,-1,-1,-1,-1],"split_conditions":[5E-1,0E0,1E0,-1.8003626E-2,-3.1428573E-1,-7.777778E-1,-5.555556E-1,-7.777778E-1,2.2222222E-1,-7.1428573E-1,-1.1111111E-1,-1E0,1.1111111E-1,-1.6311163E-2,-1.0011682E-2,-3.2709184E-1,-2.8271613E-1,-6.276698E-1,-5.027097E-1,3.47768E-3,4.4444445E-1,1.02502545E-2,1.9464765E-2,2.6502695E-2,3.3049364E-2,-2.465477E-3,-6.50422E-3,-7.1138196E-4,-3.184066E-3,-5.1348837E-4,-6.721456E-3,4.195665E-3,-6.192398E-4,9.90773E-3,6.130786E-3,1.2081029E-2,1.6182285E-2],"split_indices":[0,0,0,0,11,3,3,3,3,11,3,3,3,0,0,8,2,1,7,2,3,0,0,0,0,0,0,0,0,0,0,0,0,0,0,0,0],"split_type":[0,0,0,0,0,0,0,0,0,0,0,0,0,0,0,0,0,0,0,0,0,0,0,0,0,0,0,0,0,0,0,0,0,0,0,0,0],"sum_hessian":[7.5E2,4.3E2,3.2E2,2.98E2,1.32E2,1.59E2,1.61E2,3.2E1,1E2,2E1,1.39E2,3.8E1,1.23E2,1.5E1,1.7E1,4E1,6E1,1.1E1,9E0,4.2E1,9.7E1,5E0,3.3E1,5E1,7.3E1,7E0,3.3E1,2.1E1,3.9E1,3E0,8E0,5E0,4E0,1.9E1,2.3E1,4.6E1,5.1E1],"tree_param":{"num_deleted":"0","num_feature":"14","num_nodes":"37","size_leaf_vector":"1"}},{"base_weights":[1.2400125E-3,-4.6586424E-1,6.2840724E-1,-1.7465323E-2,-2.0087539E-1,3.4664738E-1,9.0280956E-1,-3.9404517E-1,-1.07389934E-1,3.358544E-2,4.246505E-1,6.233644E-1,9.985472E-1,-1.5852412E-2,-3.0319008E-1,-1.5242878E-1,-6.0016524E-2,-1.3662697E-1,1.66196E-1,3.4690297E-1,5.184169E-1,9.9939965E-3,6.520316E-1,2.7672464E-2,3.427024E-2,-7.722896E-3,-1.2110852E-2,-1.8147483E-3,-5.1947087E-3,-1.2768243E-3,-4.53569E-3,1.5948057E-5,-5.5965343E-3,3.2279012E-4,5.515491E-3,1.3441972E-2,9.24575E-3,1.576304E-2,6.5787383E-3,5.6107664E-3,1.9780407E-2],"categories":[],"categories_nodes":[],"categories_segments":[],"categories_sizes":[],"default_left":[0,0,0,0,0,0,0,0,0,0,0,0,0,0,0,0,0,0,0,0,0,0,0,0,0,0,0,0,0,0,0,0,0,0,0,0,0,0,0,0,0],"id":19,"left_children":[1,3,5,-1,7,9,11,13,15,17,19,21,23,-1,25,27,29,31,33,35,37,-1,39,-1,-1,-1,-1,-1,-1,-1,-1,-1,-1,-1,-1,-1,-1,-1,-1,-1,-1],"loss_changes":[2.2030005E2,1.3167206E1,2.4505333E1,0E0,2.3594732E0,3.8929062E0,3.711609E0,3.6473703E-1,1.850133E-1,7.675817E-1,7.53294E-1,1.4887428E-1,2.4901581E-1,0E0,2.4852514E-2,7.71873E-2,6.677389E-2,1.0281205E-1,5.015832E-2,1.477871E-1,2.3317337E-3,0E0,9.347916E-3,0E0,0E0,0E0,0E0,0E0,0E0,0E0,0E0,0E0,0E0,0E0,0E0,0E0,0E0,0E0,0E0,0E0,0E0],"parents":[2147483647,0,0,1,1,2,2,4,4,5,5,6,6,7,7,8,8,9,9,10,10,11,11,12,12,14,14,15,15,16,16,17,17,18,18,19,19,20,20,22,22],"right_children":[2,4,6,-1,8,10,12,14,16,18,20,22,24,-1,26,28,30,32,34,36,38,-1,40,-1,-1,-1,-1,-1,-1,-1,-1,-1,-1,-1,-1,-1,-1,-1,-1,-1,-1],"split_conditions":[5E-1,0E0,1E0,-1.7465323E-2,-2.2222222E-1,-5.555556E-1,-4.4444445E-1,-7.777778E-1,4.4444445E-1,-8.888889E-1,3.3333334E-1,-1E0,5.555556E-1,-1.5852412E-2,1.5153571E0,-3.9470002E-1,6.569198E-1,-6.0708153E-1,-1.1233816E0,-3.3333334E-1,5.688203E-1,9.9939965E-3,-9.125161E-1,2.7672464E-2,3.427024E-2,-7.722896E-3,-1.2110852E-2,-1.8147483E-3,-5.1947087E-3,-1.2768243E-3,-4.53569E-3,1.5948057E-5,-5.5965343E-3,3.2279012E-4,5.515491E-3,1.3441972E-2,9.24575E-3,1.576304E-2,6.5787383E-3,5.6107664E-3,1.9780407E-2],"split_indices":[0,0,0,0,3,3,3,3,3,3,3,3,3,0,8,1,10,1,1,6,1,0,7,0,0,0,0,0,0,0,0,0,0,0,0,0,0,0,0,0,0],"split_type":[0,0,0,0,0,0,0,0,0,0,0,0,0,0,0,0,0,0,0,0,0,0,0,0,0,0,0,0,0,0,0,0,0,0,0,0,0,0,0,0,0],"sum_hessian":[7.5E2,4.3E2,3.2E2,2.98E2,1.32E2,1.59E2,1.61E2,4.2E1,9E1,3.2E1,1.27E2,4.3E1,1.18E2,1.5E1,2.7E1,4.5E1,4.5E1,1.4E1,1.8E1,7.2E1,5.5E1,5E0,3.8E1,8.2E1,3.6E1,2.1E1,6E0,9E0,3.6E1,3.9E1,6E0,4E0,1E1,2E0,1.6E1,1.7E1,5.5E1,5.3E1,2E0,1E0,3.7E1],"tree_param":{"num_deleted":"0","num_feature":"14","num_nodes":"41","size_leaf_vector":"1"}},{"base_weights":[1.3048649E-3,-4.5204136E-1,6.099993E-1,-1.6943116E-2,-1.9521388E-1,3.3653104E-1,8.76326E-1,-4.21424E-1,-1.1937085E-1,-1.50507E-2,4.0175027E-1,6.312622E-1,9.8009324E-1,-1.5406562E-2,-3.1611994E-1,-2.125004E-1,-8.594007E-2,-1.6540542E-1,1.0623646E-1,3.256692E-1,1.50979E-2,4.9673992E-1,2.1485537E-2,2.713324E-2,3.326992E-2,-7.3423954E-3,-1.1799431E-2,-9.6907374E-4,-6.7851283E-3,-5.292722E-4,-3.5136836E-3,5.184507E-4,-6.1101303E-3,4.040794E-3,-1.5746378E-3,1.2867975E-2,8.663138E-3,1.5208631E-2,4.08033E-3],"categories":[],"categories_nodes":[],"categories_segments":[],"categories_sizes":[],"default_left":[0,0,0,0,0,0,0,0,0,0,0,0,0,0,0,0,0,0,0,0,0,0,0,0,0,0,0,0,0,0,0,0,0,0,0,0,0,0,0],"id":20,"left_children":[1,3,5,-1,7,9,11,13,15,17,19,21,23,-1,25,27,29,31,33,35,-1,37,-1,-1,-1,-1,-1,-1,-1,-1,-1,-1,-1,-1,-1,-1,-1,-1,-1],"loss_changes":[2.075137E2,1.2368034E1,2.308413E1,0E0,2.2315044E0,3.6748276E0,3.5008926E0,1.5780354E-1,2.9619038E-1,4.9171057E-1,8.787384E-1,2.2686386E-1,8.917999E-2,0E0,2.91121E-3,5.674267E-2,1.5979141E-1,8.740735E-2,7.482129E-2,1.8095303E-1,0E0,1.579523E-2,0E0,0E0,0E0,0E0,0E0,0E0,0E0,0E0,0E0,0E0,0E0,0E0,0E0,0E0,0E0,0E0,0E0],"parents":[2147483647,0,0,1,1,2,2,4,4,5,5,6,6,7,7,8,8,9,9,10,10,11,11,12,12,14,14,15,15,16,16,17,17,18,18,19,19,21,21],"right_children":[2,4,6,-1,8,10,12,14,16,18,20,22,24,-1,26,28,30,32,34,36,-1,38,-1,-1,-1,-1,-1,-1,-1,-1,-1,-1,-1,-1,-1,-1,-1,-1,-1],"split_conditions":[5E-1,0E0,1E0,-1.6943116E-2,-3.1428573E-1,-6.666667E-1,-3.3333334E-1,-7.777778E-1,0E0,-7.1428573E-1,3.3333334E-1,-7.777778E-1,5.555556E-1,-1.5406562E-2,1.5153571E0,-8.3303225E-1,-2.9655275E-1,-6.666667E-1,7.46762E-1,-3.3333334E-1,1.50979E-2,4.878903E-1,2.1485537E-2,2.713324E-2,3.326992E-2,-7.3423954E-3,-1.1799431E-2,-9.6907374E-4,-6.7851283E-3,-5.292722E-4,-3.5136836E-3,5.184507E-4,-6.1101303E-3,4.040794E-3,-1.5746378E-3,1.2867975E-2,8.663138E-3,1.5208631E-2,4.08033E-3],"split_indices":[0,0,0,0,11,3,3,3,3,11,3,3,3,0,8,7,2,6,2,6,0,1,0,0,0,0,0,0,0,0,0,0,0,0,0,0,0,0,0],"split_type":[0,0,0,0,0,0,0,0,0,0,0,0,0,0,0,0,0,0,0,0,0,0,0,0,0,0,0,0,0,0,0,0,0,0,0,0,0,0,0],"sum_hessian":[7.5E2,4.3E2,3.2E2,2.98E2,1.32E2,1.59E2,1.61E2,3.2E1,1E2,2.5E1,1.34E2,5E1,1.11E2,1.5E1,1.7E1,2.5E1,7.5E1,1.1E1,1.4E1,7.9E1,5.5E1,2.2E1,2.8E1,7.5E1,3.6E1,1.1E1,6E0,2E0,2.3E1,2.4E1,5.1E1,2E0,9E0,1.2E1,2E0,1.8E1,6.1E1,2.1E1,1E0],"tree_param":{"num_deleted":"0","num_feature":"14","num_nodes":"39","size_leaf_vector":"1"}},{"base_weights":[1.3607737E-3,-4.3862697E-1,5.921189E-1,-1.6436521E-2,-1.8970595E-1,3.266445E-1,8.506608E-1,-3.7261558E-1,-1.0119145E-1,3.0881628E-2,4.0034398E-1,5.656602E-1,9.3343794E-1,-4.6621597E-1,-2.620781E-1,-1.3179658E-1,-3.770421E-2,-1.2973708E-1,1.5606052E-1,3.2728305E-1,4.884351E-1,9.41957E-3,1.7803086E-2,2.4174351E-2,1.0087825E0,-3.609783E-3,-1.4308713E-2,-1.2823695E-3,-8.114609E-3,-5.113343E-3,-2.6669079E-3,1.4823996E-3,-2.6426855E-3,6.1531304E-5,-5.3353948E-3,1.4307021E-4,5.2073696E-3,1.1087917E-2,7.510125E-3,1.4854358E-2,6.1452077E-3,3.0439291E-2,8.714454E-3],"categories":[],"categories_nodes":[],"categories_segments":[],"categories_sizes":[],"default_left":[0,0,0,0,0,0,0,0,0,0,0,0,0,0,0,0,0,0,0,0,0,0,0,0,0,0,0,0,0,0,0,0,0,0,0,0,0,0,0,0,0,0,0],"id":21,"left_children":[1,3,5,-1,7,9,11,13,15,17,19,21,23,25,27,29,31,33,35,37,39,-1,-1,-1,41,-1,-1,-1,-1,-1,-1,-1,-1,-1,-1,-1,-1,-1,-1,-1,-1,-1,-1],"loss_changes":[1.9546442E2,1.1617714E1,2.1754372E1,0E0,2.1155844E0,3.4752483E0,3.2938156E0,3.227086E-1,1.7184705E-1,6.8374723E-1,6.639538E-1,8.630085E-2,3.7948608E-1,2.4345398E-2,2.9013515E-2,8.598554E-2,1.4042556E-1,9.546852E-2,4.952973E-2,1.451559E-1,5.1403046E-3,0E0,0E0,0E0,1.6784668E-2,0E0,0E0,0E0,0E0,0E0,0E0,0E0,0E0,0E0,0E0,0E0,0E0,0E0,0E0,0E0,0E0,0E0,0E0],"parents":[2147483647,0,0,1,1,2,2,4,4,5,5,6,6,7,7,8,8,9,9,10,10,11,11,12,12,13,13,14,14,15,15,16,16,17,17,18,18,19,19,20,20,24,24],"right_children":[2,4,6,-1,8,10,12,14,16,18,20,22,24,26,28,30,32,34,36,38,40,-1,-1,-1,42,-1,-1,-1,-1,-1,-1,-1,-1,-1,-1,-1,-1,-1,-1,-1,-1,-1,-1],"split_conditions":[5E-1,0E0,1E0,-1.6436521E-2,-2.2222222E-1,-5.555556E-1,-5.555556E-1,-6.666667E-1,6.666667E-1,-8.888889E-1,3.3333334E-1,-1E0,1.1111111E-1,-6.666667E-1,-1.1233816E0,2.5714287E-1,0E0,-6.0708153E-1,-1.1233816E0,3.3333334E-1,5.688203E-1,9.41957E-3,1.7803086E-2,2.4174351E-2,5.8885574E-1,-3.609783E-3,-1.4308713E-2,-1.2823695E-3,-8.114609E-3,-5.113343E-3,-2.6669079E-3,1.4823996E-3,-2.6426855E-3,6.1531304E-5,-5.3353948E-3,1.4307021E-4,5.2073696E-3,1.1087917E-2,7.510125E-3,1.4854358E-2,6.1452077E-3,3.0439291E-2,8.714454E-3],"split_indices":[0,0,0,0,3,3,3,3,3,3,3,3,3,6,1,11,6,1,1,6,1,0,0,0,1,0,0,0,0,0,0,0,0,0,0,0,0,0,0,0,0,0,0],"split_type":[0,0,0,0,0,0,0,0,0,0,0,0,0,0,0,0,0,0,0,0,0,0,0,0,0,0,0,0,0,0,0,0,0,0,0,0,0,0,0,0,0,0,0],"sum_hessian":[7.5E2,4.3E2,3.2E2,2.98E2,1.32E2,1.59E2,1.61E2,4.2E1,9E1,3.2E1,1.27E2,3.8E1,1.23E2,2.1E1,2.1E1,6E1,3E1,1.4E1,1.8E1,7.2E1,5.5E1,5E0,3.3E1,5E1,7.3E1,1E0,2E1,1E0,2E1,3E1,3E1,1.1E1,1.9E1,4E0,1E1,2E0,1.6E1,4.4E1,2.8E1,5.3E1,2E0,7.2E1,1E0],"tree_param":{"num_deleted":"0","num_feature":"14","num_nodes":"43","size_leaf_vector":"1"}},{"base_weights":[1.4231852E-3,-4.255904E-1,5.74761E-1,-1.5945075E-2,-1.8428738E-1,3.1709313E-1,8.256998E-1,-3.988219E-1,-1.12367325E-1,-5.925187E-2,3.7127993E-1,5.9499246E-1,9.2338175E-1,-1.4570819E-2,-2.9944548E-1,-2.0000629E-1,-8.0907054E-2,-1.7846249E-1,4.502797E-2,2.3549515E-1,4.2707038E-1,4.6746966E-1,2.0268427E-2,2.5531337E-2,3.14103E-2,-6.9526965E-3,-1.1181172E-2,-8.474254E-4,-6.3942764E-3,-4.435265E-4,-3.3342293E-3,-1.6691124E-3,-6.066426E-3,-5.612638E-4,4.140036E-3,8.906313E-3,5.235937E-3,1.0814349E-2,1.4371393E-2,1.4309018E-2,3.8778305E-3],"categories":[],"categories_nodes":[],"categories_segments":[],"categories_sizes":[],"default_left":[0,0,0,0,0,0,0,0,0,0,0,0,0,0,0,0,0,0,0,0,0,0,0,0,0,0,0,0,0,0,0,0,0,0,0,0,0,0,0,0,0],"id":22,"left_children":[1,3,5,-1,7,9,11,13,15,17,19,21,23,-1,25,27,29,31,33,35,37,39,-1,-1,-1,-1,-1,-1,-1,-1,-1,-1,-1,-1,-1,-1,-1,-1,-1,-1,-1],"loss_changes":[1.841067E2,1.09170685E1,2.0493675E1,0E0,2.007287E0,3.2848682E0,3.10141E0,1.394515E-1,2.6228988E-1,2.6909238E-1,9.5999527E-1,2.0850754E-1,1.10557556E-1,0E0,2.883315E-3,5.2641988E-2,1.5029249E-1,1.792252E-2,7.369159E-2,1.09095335E-1,1.6651154E-1,1.2226582E-2,0E0,0E0,0E0,0E0,0E0,0E0,0E0,0E0,0E0,0E0,0E0,0E0,0E0,0E0,0E0,0E0,0E0,0E0,0E0],"parents":[2147483647,0,0,1,1,2,2,4,4,5,5,6,6,7,7,8,8,9,9,10,10,11,11,12,12,14,14,15,15,16,16,17,17,18,18,19,19,20,20,21,21],"right_children":[2,4,6,-1,8,10,12,14,16,18,20,22,24,-1,26,28,30,32,34,36,38,40,-1,-1,-1,-1,-1,-1,-1,-1,-1,-1,-1,-1,-1,-1,-1,-1,-1,-1,-1],"split_conditions":[5E-1,0E0,1E0,-1.5945075E-2,-3.1428573E-1,-7.777778E-1,-3.3333334E-1,-7.777778E-1,0E0,-1E0,-1.1111111E-1,-7.777778E-1,5.555556E-1,-1.4570819E-2,1.5153571E0,-8.3303225E-1,-2.9655275E-1,-6.276698E-1,1.0159223E-1,3.47768E-3,4.4444445E-1,4.878903E-1,2.0268427E-2,2.5531337E-2,3.14103E-2,-6.9526965E-3,-1.1181172E-2,-8.474254E-4,-6.3942764E-3,-4.435265E-4,-3.3342293E-3,-1.6691124E-3,-6.066426E-3,-5.612638E-4,4.140036E-3,8.906313E-3,5.235937E-3,1.0814349E-2,1.4371393E-2,1.4309018E-2,3.8778305E-3],"split_indices":[0,0,0,0,11,3,3,3,3,3,3,3,3,0,8,7,2,1,1,2,3,1,0,0,0,0,0,0,0,0,0,0,0,0,0,0,0,0,0,0,0],"split_type":[0,0,0,0,0,0,0,0,0,0,0,0,0,0,0,0,0,0,0,0,0,0,0,0,0,0,0,0,0,0,0,0,0,0,0,0,0,0,0,0,0],"sum_hessian":[7.5E2,4.3E2,3.2E2,2.98E2,1.32E2,1.59E2,1.61E2,3.2E1,1E2,2E1,1.39E2,5E1,1.11E2,1.5E1,1.7E1,2.5E1,7.5E1,9E0,1.1E1,4.2E1,9.7E1,2.2E1,2.8E1,7.5E1,3.6E1,1.1E1,6E0,2E0,2.3E1,2.4E1,5.1E1,2E0,7E0,7E0,4E0,1.9E1,2.3E1,4.6E1,5.1E1,2.1E1,1E0],"tree_param":{"num_deleted":"0","num_feature":"14","num_nodes":"41","size_leaf_vector":"1"}},{"base_weights":[1.4749022E-3,-4.1296113E-1,5.579249E-1,-1.5468321E-2,-1.7908752E-1,3.078001E-1,8.015178E-1,-3.8784832E-1,-1.0910539E-1,2.8391426E-2,3.774305E-1,5.3326875E-1,8.7942255E-1,-1.4161015E-2,-2.914696E-1,-1.5429631E-1,-5.1718514E-2,-1.23269305E-1,1.4662929E-1,3.0869192E-1,4.6029627E-1,8.8785095E-3,5.594641E-1,2.2749567E-2,9.5100176E-1,-6.7614987E-3,-1.0893657E-2,-1.7982926E-3,-5.36E-3,2.213198E-3,-1.8656823E-3,8.6819884E-5,-5.0822985E-3,3.549099E-5,4.910131E-3,1.1186552E-2,7.737245E-3,1.0501712E-2,1.4762691E-2,4.816793E-3,1.70006E-2,2.8696198E-2,8.200768E-3],"categories":[],"categories_nodes":[],"categories_segments":[],"categories_sizes":[],"default_left":[0,0,0,0,0,0,0,0,0,0,0,0,0,0,0,0,0,0,0,0,0,0,0,0,0,0,0,0,0,0,0,0,0,0,0,0,0,0,0,0,0,0,0],"id":23,"left_children":[1,3,5,-1,7,9,11,13,15,17,19,21,23,-1,25,27,29,31,33,35,37,-1,39,-1,41,-1,-1,-1,-1,-1,-1,-1,-1,-1,-1,-1,-1,-1,-1,-1,-1,-1,-1],"loss_changes":[1.7342072E2,1.0254684E1,1.9311378E1,0E0,1.9007506E0,3.1021366E0,2.9164886E0,1.3016844E-1,2.5394988E-1,6.098322E-1,5.870075E-1,7.687473E-2,3.5373688E-1,0E0,3.3925772E-3,1.1805773E-1,6.503244E-2,8.780913E-2,4.690087E-2,1.4180756E-1,2.4014473E-2,0E0,6.9704056E-3,0E0,1.6235352E-2,0E0,0E0,0E0,0E0,0E0,0E0,0E0,0E0,0E0,0E0,0E0,0E0,0E0,0E0,0E0,0E0,0E0,0E0],"parents":[2147483647,0,0,1,1,2,2,4,4,5,5,6,6,7,7,8,8,9,9,10,10,11,11,12,12,14,14,15,15,16,16,17,17,18,18,19,19,20,20,22,22,24,24],"right_children":[2,4,6,-1,8,10,12,14,16,18,20,22,24,-1,26,28,30,32,34,36,38,-1,40,-1,42,-1,-1,-1,-1,-1,-1,-1,-1,-1,-1,-1,-1,-1,-1,-1,-1,-1,-1],"split_conditions":[5E-1,0E0,1E0,-1.5468321E-2,-3.1428573E-1,-5.555556E-1,-5.555556E-1,-7.777778E-1,4.4444445E-1,-8.888889E-1,3.3333334E-1,-1E0,1.1111111E-1,-1.4161015E-2,1.5153571E0,-3.2709184E-1,-9.259355E-1,-6.0708153E-1,-1.1233816E0,0E0,2E-1,8.8785095E-3,-9.125161E-1,2.2749567E-2,5.8885574E-1,-6.7614987E-3,-1.0893657E-2,-1.7982926E-3,-5.36E-3,2.213198E-3,-1.8656823E-3,8.6819884E-5,-5.0822985E-3,3.549099E-5,4.910131E-3,1.1186552E-2,7.737245E-3,1.0501712E-2,1.4762691E-2,4.816793E-3,1.70006E-2,2.8696198E-2,8.200768E-3],"split_indices":[0,0,0,0,11,3,3,3,3,3,3,3,3,0,8,8,7,1,1,6,11,0,7,0,1,0,0,0,0,0,0,0,0,0,0,0,0,0,0,0,0,0,0],"split_type":[0,0,0,0,0,0,0,0,0,0,0,0,0,0,0,0,0,0,0,0,0,0,0,0,0,0,0,0,0,0,0,0,0,0,0,0,0,0,0,0,0,0,0],"sum_hessian":[7.5E2,4.3E2,3.2E2,2.98E2,1.32E2,1.59E2,1.61E2,3.2E1,1E2,3.2E1,1.27E2,3.8E1,1.23E2,1.5E1,1.7E1,5.5E1,4.5E1,1.4E1,1.8E1,7.2E1,5.5E1,5E0,3.3E1,5E1,7.3E1,1.1E1,6E0,1.2E1,4.3E1,3E0,4.2E1,4E0,1E1,2E0,1.6E1,2.9E1,4.3E1,1.5E1,4E1,1E0,3.2E1,7.2E1,1E0],"tree_param":{"num_deleted":"0","num_feature":"14","num_nodes":"43","size_leaf_vector":"1"}},{"base_weights":[1.5376908E-3,-4.0069777E-1,5.4160607E-1,-1.5005822E-2,-1.7400533E-1,2.98842E-1,7.780298E-1,-3.4303E-1,-9.222439E-2,-5.66716E-2,3.5003448E-1,5.609119E-1,8.699493E-1,-1.3762737E-2,-2.646487E-1,-1.2090549E-1,-3.2812405E-2,-1.7034194E-1,4.2776305E-2,2.2133519E-1,4.0293276E-1,3.9622173E-1,6.1251837E-1,2.4023207E-2,2.9655837E-2,-6.727735E-3,-1.0613533E-2,-6.1981766E-3,-3.0629858E-3,1.5527505E-3,-2.457427E-3,-6.633818E-4,-5.530646E-3,-5.6430546E-4,3.9827824E-3,8.436718E-3,4.866167E-3,1.1176551E-2,1.5517874E-2,1.2973208E-2,5.6553194E-3,4.7445414E-3,1.8622398E-2],"categories":[],"categories_nodes":[],"categories_segments":[],"categories_sizes":[],"default_left":[0,0,0,0,0,0,0,0,0,0,0,0,0,0,0,0,0,0,0,0,0,0,0,0,0,0,0,0,0,0,0,0,0,0,0,0,0,0,0,0,0,0,0],"id":24,"left_children":[1,3,5,-1,7,9,11,13,15,17,19,21,23,-1,25,27,29,31,33,35,37,39,41,-1,-1,-1,-1,-1,-1,-1,-1,-1,-1,-1,-1,-1,-1,-1,-1,-1,-1,-1,-1],"loss_changes":[1.6336026E2,9.634193E0,1.8191345E1,0E0,1.8068228E0,2.931776E0,2.7451324E0,2.686391E-1,1.5109688E-1,2.4467641E-1,8.6393356E-1,1.9075966E-1,1.2712097E-1,0E0,2.146864E-2,7.7218056E-2,1.329697E-1,1.6694665E-2,6.899817E-2,1.066556E-1,1.4769077E-1,3.132534E-2,4.0157318E-2,0E0,0E0,0E0,0E0,0E0,0E0,0E0,0E0,0E0,0E0,0E0,0E0,0E0,0E0,0E0,0E0,0E0,0E0,0E0,0E0],"parents":[2147483647,0,0,1,1,2,2,4,4,5,5,6,6,7,7,8,8,9,9,10,10,11,11,12,12,14,14,15,15,16,16,17,17,18,18,19,19,20,20,21,21,22,22],"right_children":[2,4,6,-1,8,10,12,14,16,18,20,22,24,-1,26,28,30,32,34,36,38,40,42,-1,-1,-1,-1,-1,-1,-1,-1,-1,-1,-1,-1,-1,-1,-1,-1,-1,-1,-1,-1],"split_conditions":[5E-1,0E0,1E0,-1.5005822E-2,-2.2222222E-1,-7.777778E-1,-3.3333334E-1,-7.777778E-1,6.666667E-1,-1E0,-1.1111111E-1,-6.571429E-1,5.555556E-1,-1.3762737E-2,1.5153571E0,-6.666667E-1,0E0,-6.666667E-1,1.0159223E-1,3.47768E-3,8.888889E-1,6.666667E-1,-9.125161E-1,2.4023207E-2,2.9655837E-2,-6.727735E-3,-1.0613533E-2,-6.1981766E-3,-3.0629858E-3,1.5527505E-3,-2.457427E-3,-6.633818E-4,-5.530646E-3,-5.6430546E-4,3.9827824E-3,8.436718E-3,4.866167E-3,1.1176551E-2,1.5517874E-2,1.2973208E-2,5.6553194E-3,4.7445414E-3,1.8622398E-2],"split_indices":[0,0,0,0,3,3,3,3,3,3,3,11,3,0,8,6,6,6,1,2,3,6,7,0,0,0,0,0,0,0,0,0,0,0,0,0,0,0,0,0,0,0,0],"split_type":[0,0,0,0,0,0,0,0,0,0,0,0,0,0,0,0,0,0,0,0,0,0,0,0,0,0,0,0,0,0,0,0,0,0,0,0,0,0,0,0,0,0,0],"sum_hessian":[7.5E2,4.3E2,3.2E2,2.98E2,1.32E2,1.59E2,1.61E2,4.2E1,9E1,2E1,1.39E2,5E1,1.11E2,1.5E1,2.7E1,6E1,3E1,9E0,1.1E1,4.2E1,9.7E1,1.4E1,3.6E1,7.5E1,3.6E1,2.1E1,6E0,9E0,5.1E1,1.1E1,1.9E1,1E0,8E0,7E0,4E0,1.9E1,2.3E1,8E1,1.7E1,1.1E1,3E0,1E0,3.5E1],"tree_param":{"num_deleted":"0","num_feature":"14","num_nodes":"43","size_leaf_vector":"1"}},{"base_weights":[1.5935631E-3,-3.8880742E-1,5.2577186E-1,-1.4557154E-2,-1.690955E-1,2.9010937E-1,7.552794E-1,-3.3346248E-1,-8.95694E-2,2.6117224E-2,3.5590336E-1,5.900841E-1,8.714987E-1,-4.051812E-1,-2.2154509E-1,-1.17430165E-1,-3.185727E-2,-1.4625432E-1,1.1895091E-1,2.9062444E-1,4.346437E-1,4.2745405E-1,6.5571755E-1,2.6262773E-2,7.6530897E-3,-2.458788E-3,-1.2457013E-2,-9.565061E-4,-6.909316E-3,-4.5953286E-3,-2.3368392E-3,1.5100479E-3,-2.3873916E-3,6.893289E-4,-5.471954E-3,4.807147E-3,8.000488E-4,1.1537086E-2,7.6571424E-3,9.892012E-3,1.3949492E-2,1.3089069E-2,3.4918855E-3,5.7515395E-3,1.9845322E-2],"categories":[],"categories_nodes":[],"categories_segments":[],"categories_sizes":[],"default_left":[0,0,0,0,0,0,0,0,0,0,0,0,0,0,0,0,0,0,0,0,0,0,0,0,0,0,0,0,0,0,0,0,0,0,0,0,0,0,0,0,0,0,0,0,0],"id":25,"left_children":[1,3,5,-1,7,9,11,13,15,17,19,21,23,25,27,29,31,33,35,37,39,41,43,-1,-1,-1,-1,-1,-1,-1,-1,-1,-1,-1,-1,-1,-1,-1,-1,-1,-1,-1,-1,-1,-1],"loss_changes":[1.5388885E2,9.049568E0,1.7142593E1,0E0,1.7086368E0,2.769761E0,2.5959702E0,2.5537682E-1,1.425783E-1,5.4545933E-1,5.316124E-1,4.6688843E-1,1.7929077E-3,4.719782E-2,2.4243653E-2,7.427931E-2,1.2560047E-1,7.7591985E-2,7.9548985E-2,1.4452314E-1,2.492237E-2,1.251936E-2,2.2029877E-3,0E0,0E0,0E0,0E0,0E0,0E0,0E0,0E0,0E0,0E0,0E0,0E0,0E0,0E0,0E0,0E0,0E0,0E0,0E0,0E0,0E0,0E0],"parents":[2147483647,0,0,1,1,2,2,4,4,5,5,6,6,7,7,8,8,9,9,10,10,11,11,12,12,13,13,14,14,15,15,16,16,17,17,18,18,19,19,20,20,21,21,22,22],"right_children":[2,4,6,-1,8,10,12,14,16,18,20,22,24,26,28,30,32,34,36,38,40,42,44,-1,-1,-1,-1,-1,-1,-1,-1,-1,-1,-1,-1,-1,-1,-1,-1,-1,-1,-1,-1,-1,-1],"split_conditions":[5E-1,0E0,1E0,-1.4557154E-2,-2.2222222E-1,-5.555556E-1,-1.1111111E-1,-5.555556E-1,6.666667E-1,-7.1428573E-1,3.3333334E-1,-7.777778E-1,7.51461E-1,-6.442347E-1,-1.1233816E0,2.5714287E-1,0E0,-6.666667E-1,1.20150864E-1,-3.3333334E-1,2E-1,4.878903E-1,-2.618281E0,2.6262773E-2,7.6530897E-3,-2.458788E-3,-1.2457013E-2,-9.565061E-4,-6.909316E-3,-4.5953286E-3,-2.3368392E-3,1.5100479E-3,-2.3873916E-3,6.893289E-4,-5.471954E-3,4.807147E-3,8.000488E-4,1.1537086E-2,7.6571424E-3,9.892012E-3,1.3949492E-2,1.3089069E-2,3.4918855E-3,5.7515395E-3,1.9845322E-2],"split_indices":[0,0,0,0,3,3,3,3,3,11,3,3,8,8,1,11,6,6,2,6,11,1,1,0,0,0,0,0,0,0,0,0,0,0,0,0,0,0,0,0,0,0,0,0,0],"split_type":[0,0,0,0,0,0,0,0,0,0,0,0,0,0,0,0,0,0,0,0,0,0,0,0,0,0,0,0,0,0,0,0,0,0,0,0,0,0,0,0,0,0,0,0,0],"sum_hessian":[7.5E2,4.3E2,3.2E2,2.98E2,1.32E2,1.59E2,1.61E2,4.2E1,9E1,3.2E1,1.27E2,6.9E1,9.2E1,2.4E1,1.8E1,6E1,3E1,1.1E1,2.1E1,7.2E1,5.5E1,2.2E1,4.7E1,9.1E1,1E0,1E0,2.3E1,1E0,1.7E1,3E1,3E1,1.1E1,1.9E1,2E0,9E0,1.4E1,7E0,1.7E1,5.5E1,1.5E1,4E1,2.1E1,1E0,1E0,4.6E1],"tree_param":{"num_deleted":"0","num_feature":"14","num_nodes":"45","size_leaf_vector":"1"}},{"base_weights":[1.6453599E-3,-3.77248E-1,5.103724E-1,-1.41219E-2,-1.6425268E-1,2.8168026E-1,7.3309076E-1,-3.5694614E-1,-9.966717E-2,7.489076E-2,3.6194667E-1,5.729841E-1,2.5371553E-2,-1.3025307E-2,-2.684662E-1,-1.5605956E-1,-6.01302E-2,-1.1426132E-1,1.6121547E-1,2.9983628E-1,4.2203018E-1,4.1535124E-1,1.9097382E-2,-6.2080724E-3,-1.0067841E-2,-1.6584675E-3,-5.255456E-3,-3.108711E-4,-2.5799775E-3,2.1460318E-4,-4.771874E-3,6.8630786E-3,2.0820955E-3,1.2273644E-2,7.730448E-3,9.6138E-3,1.3541217E-2,1.2714243E-2,3.4395074E-3],"categories":[],"categories_nodes":[],"categories_segments":[],"categories_sizes":[],"default_left":[0,0,0,0,0,0,0,0,0,0,0,0,0,0,0,0,0,0,0,0,0,0,0,0,0,0,0,0,0,0,0,0,0,0,0,0,0,0,0],"id":26,"left_children":[1,3,5,-1,7,9,11,13,15,17,19,21,-1,-1,23,25,27,29,31,33,35,37,-1,-1,-1,-1,-1,-1,-1,-1,-1,-1,-1,-1,-1,-1,-1,-1,-1],"loss_changes":[1.4495027E2,8.504417E0,1.6143295E1,0E0,1.6196363E0,2.6286135E0,2.436676E0,1.0893965E-1,2.158041E-1,7.695317E-1,3.0261898E-1,4.3732262E-1,0E0,0E0,4.9015284E-3,6.932646E-2,7.764308E-2,8.2730636E-2,1.825952E-1,1.7099047E-1,2.2258759E-2,9.898901E-3,0E0,0E0,0E0,0E0,0E0,0E0,0E0,0E0,0E0,0E0,0E0,0E0,0E0,0E0,0E0,0E0,0E0],"parents":[2147483647,0,0,1,1,2,2,4,4,5,5,6,6,7,7,8,8,9,9,10,10,11,11,14,14,15,15,16,16,17,17,18,18,19,19,20,20,21,21],"right_children":[2,4,6,-1,8,10,12,14,16,18,20,22,-1,-1,24,26,28,30,32,34,36,38,-1,-1,-1,-1,-1,-1,-1,-1,-1,-1,-1,-1,-1,-1,-1,-1,-1],"split_conditions":[5E-1,0E0,1E0,-1.41219E-2,-3.1428573E-1,-4.4444445E-1,-1.1111111E-1,-7.777778E-1,2.2222222E-1,-8.888889E-1,3.3333334E-1,-7.777778E-1,2.5371553E-2,-1.3025307E-2,1.5153571E0,-3.2709184E-1,-2.8271613E-1,-6.0708153E-1,1.6155777E-2,-3.3333334E-1,2E-1,4.878903E-1,1.9097382E-2,-6.2080724E-3,-1.0067841E-2,-1.6584675E-3,-5.255456E-3,-3.108711E-4,-2.5799775E-3,2.1460318E-4,-4.771874E-3,6.8630786E-3,2.0820955E-3,1.2273644E-2,7.730448E-3,9.6138E-3,1.3541217E-2,1.2714243E-2,3.4395074E-3],"split_indices":[0,0,0,0,11,3,3,3,3,3,3,3,0,0,8,8,2,1,2,6,11,1,0,0,0,0,0,0,0,0,0,0,0,0,0,0,0,0,0],"split_type":[0,0,0,0,0,0,0,0,0,0,0,0,0,0,0,0,0,0,0,0,0,0,0,0,0,0,0,0,0,0,0,0,0,0,0,0,0,0,0],"sum_hessian":[7.5E2,4.3E2,3.2E2,2.98E2,1.32E2,1.59E2,1.61E2,3.2E1,1E2,4.5E1,1.14E2,6.9E1,9.2E1,1.5E1,1.7E1,4E1,6E1,1.4E1,3.1E1,5.9E1,5.5E1,2.2E1,4.7E1,1.1E1,6E0,7E0,3.3E1,2.1E1,3.9E1,4E0,1E1,1.7E1,1.4E1,1.4E1,4.5E1,1.5E1,4E1,2.1E1,1E0],"tree_param":{"num_deleted":"0","num_feature":"14","num_nodes":"39","size_leaf_vector":"1"}},{"base_weights":[1.6691558E-3,-3.6605406E-1,4.9539822E-1,-1.369966E-2,-1.5961914E-1,2.7352703E-1,7.114723E-1,-3.1546333E-1,-8.422443E-2,-5.3358413E-2,3.2060605E-1,4.7317258E-1,7.806837E-1,-1.2658971E-2,-2.4333827E-1,-1.1086183E-1,-2.909199E-2,-1.5824513E-1,3.8493723E-2,2.0201188E-1,3.693708E-1,7.818082E-3,4.9676806E-1,2.1101002E-2,2.6540149E-2,-6.087251E-3,-9.571484E-3,-5.8292965E-3,-2.780465E-3,1.5224492E-3,-2.266247E-3,-1.4217055E-3,-5.401053E-3,-5.83785E-4,3.705604E-3,7.7831363E-3,4.372191E-3,1.0229169E-2,1.4299298E-2,1.5507763E-2,8.294096E-3],"categories":[],"categories_nodes":[],"categories_segments":[],"categories_sizes":[],"default_left":[0,0,0,0,0,0,0,0,0,0,0,0,0,0,0,0,0,0,0,0,0,0,0,0,0,0,0,0,0,0,0,0,0,0,0,0,0,0,0,0,0],"id":27,"left_children":[1,3,5,-1,7,9,11,13,15,17,19,21,23,-1,25,27,29,31,33,35,37,-1,39,-1,-1,-1,-1,-1,-1,-1,-1,-1,-1,-1,-1,-1,-1,-1,-1,-1,-1],"loss_changes":[1.3652963E2,7.9882164E0,1.5194328E1,0E0,1.5361569E0,2.4794207E0,2.3024826E0,2.2762394E-1,1.3041604E-1,2.0840691E-1,7.350321E-1,6.615257E-2,3.7471008E-1,0E0,2.0970106E-2,7.4531496E-2,1.18798606E-1,1.5623361E-2,6.15343E-2,1.0114372E-1,1.3602257E-1,0E0,8.068085E-3,0E0,0E0,0E0,0E0,0E0,0E0,0E0,0E0,0E0,0E0,0E0,0E0,0E0,0E0,0E0,0E0,0E0,0E0],"parents":[2147483647,0,0,1,1,2,2,4,4,5,5,6,6,7,7,8,8,9,9,10,10,11,11,12,12,14,14,15,15,16,16,17,17,18,18,19,19,20,20,22,22],"right_children":[2,4,6,-1,8,10,12,14,16,18,20,22,24,-1,26,28,30,32,34,36,38,-1,40,-1,-1,-1,-1,-1,-1,-1,-1,-1,-1,-1,-1,-1,-1,-1,-1,-1,-1],"split_conditions":[5E-1,0E0,1E0,-1.369966E-2,-2.2222222E-1,-7.777778E-1,-5.555556E-1,-7.777778E-1,6.666667E-1,-1E0,-1.1111111E-1,-1E0,5.4285717E-1,-1.2658971E-2,5.976601E-1,-6.666667E-1,0E0,-6.276698E-1,1.0159223E-1,3.47768E-3,8.888889E-1,7.818082E-3,6.325847E-1,2.1101002E-2,2.6540149E-2,-6.087251E-3,-9.571484E-3,-5.8292965E-3,-2.780465E-3,1.5224492E-3,-2.266247E-3,-1.4217055E-3,-5.401053E-3,-5.83785E-4,3.705604E-3,7.7831363E-3,4.372191E-3,1.0229169E-2,1.4299298E-2,1.5507763E-2,8.294096E-3],"split_indices":[0,0,0,0,3,3,3,3,3,3,3,3,11,0,10,6,6,1,1,2,3,0,2,0,0,0,0,0,0,0,0,0,0,0,0,0,0,0,0,0,0],"split_type":[0,0,0,0,0,0,0,0,0,0,0,0,0,0,0,0,0,0,0,0,0,0,0,0,0,0,0,0,0,0,0,0,0,0,0,0,0,0,0,0,0],"sum_hessian":[7.5E2,4.3E2,3.2E2,2.98E2,1.32E2,1.59E2,1.61E2,4.2E1,9E1,2E1,1.39E2,3.8E1,1.23E2,1.5E1,2.7E1,6E1,3E1,9E0,1.1E1,4.2E1,9.7E1,5E0,3.3E1,7.5E1,4.8E1,2E1,7E0,9E0,5.1E1,1.1E1,1.9E1,2E0,7E0,7E0,4E0,1.9E1,2.3E1,8E1,1.7E1,2.9E1,4E0],"tree_param":{"num_deleted":"0","num_feature":"14","num_nodes":"41","size_leaf_vector":"1"}},{"base_weights":[1.700146E-3,-3.5519165E-1,4.80886E-1,-1.3290046E-2,-1.5511383E-1,2.6552737E-1,6.9061744E-1,-3.3802164E-1,-9.3816094E-2,6.997544E-2,3.4143922E-1,5.3949654E-1,7.9693836E-1,-1.2302939E-2,-2.5517485E-1,-1.6962105E-1,-6.66484E-2,-1.0851863E-1,1.5145782E-1,2.8622568E-1,4.0282822E-1,3.9105862E-1,5.993835E-1,2.40193E-2,6.8412065E-3,-5.869708E-3,-9.62256E-3,-5.525684E-4,-5.4436126E-3,-1.1463747E-4,-2.8671618E-3,2.3352026E-4,-4.545544E-3,6.475637E-3,1.9225345E-3,1.115727E-2,7.4196258E-3,9.01011E-3,1.287873E-2,1.1967688E-2,3.2706463E-3,5.254394E-3,1.8140499E-2],"categories":[],"categories_nodes":[],"categories_segments":[],"categories_sizes":[],"default_left":[0,0,0,0,0,0,0,0,0,0,0,0,0,0,0,0,0,0,0,0,0,0,0,0,0,0,0,0,0,0,0,0,0,0,0,0,0,0,0,0,0,0,0],"id":28,"left_children":[1,3,5,-1,7,9,11,13,15,17,19,21,23,-1,25,27,29,31,33,35,37,39,41,-1,-1,-1,-1,-1,-1,-1,-1,-1,-1,-1,-1,-1,-1,-1,-1,-1,-1,-1,-1],"loss_changes":[1.2860495E2,7.5034447E0,1.4315384E1,0E0,1.4594619E0,2.3512602E0,2.1729584E0,9.2406034E-2,1.9669908E-1,6.8546546E-1,2.7449322E-1,3.878708E-1,1.3435364E-2,0E0,7.496834E-3,4.317516E-2,1.377413E-1,7.6193765E-2,1.6621697E-1,1.21362686E-1,1.2102127E-2,7.523775E-3,2.0122528E-3,0E0,0E0,0E0,0E0,0E0,0E0,0E0,0E0,0E0,0E0,0E0,0E0,0E0,0E0,0E0,0E0,0E0,0E0,0E0,0E0],"parents":[2147483647,0,0,1,1,2,2,4,4,5,5,6,6,7,7,8,8,9,9,10,10,11,11,12,12,14,14,15,15,16,16,17,17,18,18,19,19,20,20,21,21,22,22],"right_children":[2,4,6,-1,8,10,12,14,16,18,20,22,24,-1,26,28,30,32,34,36,38,40,42,-1,-1,-1,-1,-1,-1,-1,-1,-1,-1,-1,-1,-1,-1,-1,-1,-1,-1,-1,-1],"split_conditions":[5E-1,0E0,1E0,-1.3290046E-2,-3.1428573E-1,-4.4444445E-1,-1.1111111E-1,-7.777778E-1,0E0,-8.888889E-1,4.4444445E-1,-7.777778E-1,7.51461E-1,-1.2302939E-2,1.5153571E0,-8.3303225E-1,-2.9655275E-1,-6.0708153E-1,1.6155777E-2,-3.3333334E-1,2E-1,4.878903E-1,-2.618281E0,2.40193E-2,6.8412065E-3,-5.869708E-3,-9.62256E-3,-5.525684E-4,-5.4436126E-3,-1.1463747E-4,-2.8671618E-3,2.3352026E-4,-4.545544E-3,6.475637E-3,1.9225345E-3,1.115727E-2,7.4196258E-3,9.01011E-3,1.287873E-2,1.1967688E-2,3.2706463E-3,5.254394E-3,1.8140499E-2],"split_indices":[0,0,0,0,11,3,3,3,3,3,3,3,8,0,8,7,2,1,2,6,11,1,1,0,0,0,0,0,0,0,0,0,0,0,0,0,0,0,0,0,0,0,0],"split_type":[0,0,0,0,0,0,0,0,0,0,0,0,0,0,0,0,0,0,0,0,0,0,0,0,0,0,0,0,0,0,0,0,0,0,0,0,0,0,0,0,0,0,0],"sum_hessian":[7.5E2,4.3E2,3.2E2,2.98E2,1.32E2,1.59E2,1.61E2,3.2E1,1E2,4.5E1,1.14E2,6.9E1,9.2E1,1.5E1,1.7E1,2.5E1,7.5E1,1.4E1,3.1E1,6.3E1,5.1E1,2.2E1,4.7E1,9.1E1,1E0,1.1E1,6E0,2E0,2.3E1,2.4E1,5.1E1,4E0,1E1,1.7E1,1.4E1,1.7E1,4.6E1,1.3E1,3.8E1,2.1E1,1E0,1E0,4.6E1],"tree_param":{"num_deleted":"0","num_feature":"14","num_nodes":"43","size_leaf_vector":"1"}},{"base_weights":[1.734348E-3,-3.4465206E-1,4.6681473E-1,-1.2892677E-2,-1.5073691E-1,2.5784004E-1,6.703279E-1,-3.2872322E-1,-9.1090515E-2,6.796498E-2,3.3154798E-1,4.8314437E-1,7.495782E-1,-1.1956916E-2,-2.4838026E-1,-1.3021211E-1,-4.1484002E-2,-1.05550505E-1,1.4717646E-1,2.779292E-1,3.9116436E-1,3.4073222E-1,5.2782106E-1,2.055801E-2,2.5842536E-2,-5.7082903E-3,-9.375122E-3,-1.3207173E-3,-4.581523E-3,2.3582322E-3,-1.5507174E-3,2.2791838E-4,-4.4215745E-3,6.29216E-3,1.8687014E-3,1.0841147E-2,7.201774E-3,8.39463E-3,1.2426362E-2,1.1297098E-2,4.44108E-3,3.8741934E-3,1.605925E-2],"categories":[],"categories_nodes":[],"categories_segments":[],"categories_sizes":[],"default_left":[0,0,0,0,0,0,0,0,0,0,0,0,0,0,0,0,0,0,0,0,0,0,0,0,0,0,0,0,0,0,0,0,0,0,0,0,0,0,0,0,0,0,0],"id":29,"left_children":[1,3,5,-1,7,9,11,13,15,17,19,21,23,-1,25,27,29,31,33,35,37,39,41,-1,-1,-1,-1,-1,-1,-1,-1,-1,-1,-1,-1,-1,-1,-1,-1,-1,-1,-1,-1],"loss_changes":[1.2114513E2,7.0479813E0,1.3479004E1,0E0,1.3820167E0,2.216714E0,2.0410156E0,8.617425E-2,1.9060767E-1,6.477778E-1,2.5888824E-1,1.4464188E-1,2.1526337E-1,0E0,7.6030493E-3,1.01899624E-1,6.0446672E-2,7.212332E-2,1.5687716E-1,1.15487576E-1,1.753807E-2,4.7841072E-2,4.1316986E-2,0E0,0E0,0E0,0E0,0E0,0E0,0E0,0E0,0E0,0E0,0E0,0E0,0E0,0E0,0E0,0E0,0E0,0E0,0E0,0E0],"parents":[2147483647,0,0,1,1,2,2,4,4,5,5,6,6,7,7,8,8,9,9,10,10,11,11,12,12,14,14,15,15,16,16,17,17,18,18,19,19,20,20,21,21,22,22],"right_children":[2,4,6,-1,8,10,12,14,16,18,20,22,24,-1,26,28,30,32,34,36,38,40,42,-1,-1,-1,-1,-1,-1,-1,-1,-1,-1,-1,-1,-1,-1,-1,-1,-1,-1,-1,-1],"split_conditions":[5E-1,0E0,1E0,-1.2892677E-2,-3.1428573E-1,-4.4444445E-1,-3.3333334E-1,-7.777778E-1,4.4444445E-1,-8.888889E-1,4.4444445E-1,-6.571429E-1,5.555556E-1,-1.1956916E-2,1.5153571E0,-3.2709184E-1,-9.259355E-1,-6.0708153E-1,1.6155777E-2,-3.3333334E-1,-3.3731994E-1,6.666667E-1,-9.125161E-1,2.055801E-2,2.5842536E-2,-5.7082903E-3,-9.375122E-3,-1.3207173E-3,-4.581523E-3,2.3582322E-3,-1.5507174E-3,2.2791838E-4,-4.4215745E-3,6.29216E-3,1.8687014E-3,1.0841147E-2,7.201774E-3,8.39463E-3,1.2426362E-2,1.1297098E-2,4.44108E-3,3.8741934E-3,1.605925E-2],"split_indices":[0,0,0,0,11,3,3,3,3,3,3,11,3,0,8,8,7,1,2,6,2,6,7,0,0,0,0,0,0,0,0,0,0,0,0,0,0,0,0,0,0,0,0],"split_type":[0,0,0,0,0,0,0,0,0,0,0,0,0,0,0,0,0,0,0,0,0,0,0,0,0,0,0,0,0,0,0,0,0,0,0,0,0,0,0,0,0,0,0],"sum_hessian":[7.5E2,4.3E2,3.2E2,2.98E2,1.32E2,1.59E2,1.61E2,3.2E1,1E2,4.5E1,1.14E2,5E1,1.11E2,1.5E1,1.7E1,5.5E1,4.5E1,1.4E1,3.1E1,6.3E1,5.1E1,1.4E1,3.6E1,7.5E1,3.6E1,1.1E1,6E0,1.2E1,4.3E1,3E0,4.2E1,4E0,1E1,1.7E1,1.4E1,1.7E1,4.6E1,1.1E1,4E1,1.1E1,3E0,1E0,3.5E1],"tree_param":{"num_deleted":"0","num_feature":"14","num_nodes":"43","size_leaf_vector":"1"}},{"base_weights":[1.7887013E-3,-3.3441693E-1,4.5319942E-1,-1.2507189E-2,-1.4645642E-1,2.5037256E-1,6.507247E-1,-2.905111E-1,-7.6777205E-2,-5.0117265E-2,2.9365763E-1,5.0823295E-1,7.509795E-1,-3.5283867E-1,-1.9321112E-1,-1.01757705E-1,-2.5145343E-2,2.9054523E-2,-1.5890794E-1,1.8481222E-1,3.3841985E-1,3.6895123E-1,5.643839E-1,2.2634482E-2,6.430217E-3,-2.0638043E-3,-1.0854224E-2,-5.8405637E-4,-6.053457E-3,-5.4874257E-3,-2.525814E-3,1.5716552E-3,-2.1122517E-3,-2.3994462E-3,2.592055E-3,-1.4024985E-3,-5.5282353E-3,7.172467E-3,3.9566E-3,9.35214E-3,1.3190611E-2,1.1294185E-2,3.052132E-3,4.9346886E-3,1.7081775E-2],"categories":[],"categories_nodes":[],"categories_segments":[],"categories_sizes":[],"default_left":[0,0,0,0,0,0,0,0,0,0,0,0,0,0,0,0,0,0,0,0,0,0,0,0,0,0,0,0,0,0,0,0,0,0,0,0,0,0,0,0,0,0,0,0,0],"id":30,"left_children":[1,3,5,-1,7,9,11,13,15,17,19,21,23,25,27,29,31,33,35,37,39,41,43,-1,-1,-1,-1,-1,-1,-1,-1,-1,-1,-1,-1,-1,-1,-1,-1,-1,-1,-1,-1,-1,-1],"loss_changes":[1.1412843E2,6.6214867E0,1.2697433E1,0E0,1.3126984E0,2.0957937E0,1.932579E0,1.9260001E-1,1.14812136E-1,1.8549317E-1,6.195593E-1,3.3922577E-1,1.3122559E-2,3.879857E-2,2.436465E-2,7.155061E-2,1.1248056E-1,8.819858E-2,1.6990751E-2,9.197593E-2,1.2772846E-1,7.925749E-3,2.480507E-3,0E0,0E0,0E0,0E0,0E0,0E0,0E0,0E0,0E0,0E0,0E0,0E0,0E0,0E0,0E0,0E0,0E0,0E0,0E0,0E0,0E0,0E0],"parents":[2147483647,0,0,1,1,2,2,4,4,5,5,6,6,7,7,8,8,9,9,10,10,11,11,12,12,13,13,14,14,15,15,16,16,17,17,18,18,19,19,20,20,21,21,22,22],"right_children":[2,4,6,-1,8,10,12,14,16,18,20,22,24,26,28,30,32,34,36,38,40,42,44,-1,-1,-1,-1,-1,-1,-1,-1,-1,-1,-1,-1,-1,-1,-1,-1,-1,-1,-1,-1,-1,-1],"split_conditions":[5E-1,0E0,1E0,-1.2507189E-2,-2.2222222E-1,-7.777778E-1,-1.1111111E-1,-5.555556E-1,6.666667E-1,5.6667857E0,-1.1111111E-1,-7.777778E-1,7.51461E-1,-6.442347E-1,-1.1233816E0,-6.666667E-1,0E0,-4.3500635E-1,-6.276698E-1,3.47768E-3,8.888889E-1,4.878903E-1,-2.618281E0,2.2634482E-2,6.430217E-3,-2.0638043E-3,-1.0854224E-2,-5.8405637E-4,-6.053457E-3,-5.4874257E-3,-2.525814E-3,1.5716552E-3,-2.1122517E-3,-2.3994462E-3,2.592055E-3,-1.4024985E-3,-5.5282353E-3,7.172467E-3,3.9566E-3,9.35214E-3,1.3190611E-2,1.1294185E-2,3.052132E-3,4.9346886E-3,1.7081775E-2],"split_indices":[0,0,0,0,3,3,3,3,3,8,3,3,8,8,1,6,6,2,1,2,3,1,1,0,0,0,0,0,0,0,0,0,0,0,0,0,0,0,0,0,0,0,0,0,0],"split_type":[0,0,0,0,0,0,0,0,0,0,0,0,0,0,0,0,0,0,0,0,0,0,0,0,0,0,0,0,0,0,0,0,0,0,0,0,0,0,0,0,0,0,0,0,0],"sum_hessian":[7.5E2,4.3E2,3.2E2,2.98E2,1.32E2,1.59E2,1.61E2,4.2E1,9E1,2E1,1.39E2,6.9E1,9.2E1,2.4E1,1.8E1,6E1,3E1,1.2E1,8E0,4.2E1,9.7E1,2.2E1,4.7E1,9.1E1,1E0,1E0,2.3E1,1E0,1.7E1,9E0,5.1E1,1.1E1,1.9E1,4E0,8E0,2E0,6E0,1.9E1,2.3E1,8E1,1.7E1,2.1E1,1E0,1E0,4.6E1],"tree_param":{"num_deleted":"0","num_feature":"14","num_nodes":"45","size_leaf_vector":"1"}},{"base_weights":[1.8039388E-3,-3.2447866E-1,4.3989113E-1,-1.2133228E-2,-1.4227408E-1,2.4302968E-1,6.316068E-1,-2.6710683E-1,-6.627512E-2,6.34231E-2,3.12759E-1,4.9350545E-1,7.287626E-1,-3.4277022E-1,-1.8408027E-1,-9.952333E-3,-9.135167E-2,-1.0030379E-1,1.3818811E-1,2.618492E-1,3.6940265E-1,3.585065E-1,1.6437333E-2,2.227543E-2,1.3612194E-2,-2.0328478E-3,-1.0542165E-2,-1.4152693E-3,-5.996588E-3,-1.5794891E-3,1.2023806E-3,-3.2758308E-3,5.377368E-4,-4.729715E-4,-4.6473225E-3,5.941882E-3,1.7137803E-3,1.029062E-2,6.755729E-3,7.887398E-3,1.1746813E-2,1.1294812E-2,5.368309E-3],"categories":[],"categories_nodes":[],"categories_segments":[],"categories_sizes":[],"default_left":[0,0,0,0,0,0,0,0,0,0,0,0,0,0,0,0,0,0,0,0,0,0,0,0,0,0,0,0,0,0,0,0,0,0,0,0,0,0,0,0,0,0,0],"id":31,"left_children":[1,3,5,-1,7,9,11,13,15,17,19,21,23,25,27,29,31,33,35,37,39,41,-1,-1,-1,-1,-1,-1,-1,-1,-1,-1,-1,-1,-1,-1,-1,-1,-1,-1,-1,-1,-1],"loss_changes":[1.07490845E2,6.2219124E0,1.1961502E1,0E0,1.2440896E0,1.9839792E0,1.8139648E0,2.510066E-1,1.17730826E-1,5.7694876E-1,2.3489952E-1,3.1770134E-1,1.4820099E-2,3.555727E-2,4.6832025E-2,5.978806E-2,1.1504462E-1,6.680325E-2,1.4399952E-1,1.13193035E-1,1.9751072E-2,6.9150925E-3,0E0,0E0,0E0,0E0,0E0,0E0,0E0,0E0,0E0,0E0,0E0,0E0,0E0,0E0,0E0,0E0,0E0,0E0,0E0,0E0,0E0],"parents":[2147483647,0,0,1,1,2,2,4,4,5,5,6,6,7,7,8,8,9,9,10,10,11,11,12,12,13,13,14,14,15,15,16,16,17,17,18,18,19,19,20,20,21,21],"right_children":[2,4,6,-1,8,10,12,14,16,18,20,22,24,26,28,30,32,34,36,38,40,42,-1,-1,-1,-1,-1,-1,-1,-1,-1,-1,-1,-1,-1,-1,-1,-1,-1,-1,-1,-1,-1],"split_conditions":[5E-1,0E0,1E0,-1.2133228E-2,-1.1111111E-1,-4.4444445E-1,-1.1111111E-1,-5.555556E-1,-2.9655275E-1,-8.888889E-1,4.4444445E-1,-7.777778E-1,5.4531294E-1,-6.442347E-1,-6.8936914E-1,-4.423818E-2,8.888889E-1,5.6667857E0,1.6155777E-2,-3.3333334E-1,-3.3731994E-1,6.325847E-1,1.6437333E-2,2.227543E-2,1.3612194E-2,-2.0328478E-3,-1.0542165E-2,-1.4152693E-3,-5.996588E-3,-1.5794891E-3,1.2023806E-3,-3.2758308E-3,5.377368E-4,-4.729715E-4,-4.6473225E-3,5.941882E-3,1.7137803E-3,1.029062E-2,6.755729E-3,7.887398E-3,1.1746813E-2,1.1294812E-2,5.368309E-3],"split_indices":[0,0,0,0,3,3,3,3,2,3,3,3,1,8,1,10,3,8,2,6,2,2,0,0,0,0,0,0,0,0,0,0,0,0,0,0,0,0,0,0,0,0,0],"split_type":[0,0,0,0,0,0,0,0,0,0,0,0,0,0,0,0,0,0,0,0,0,0,0,0,0,0,0,0,0,0,0,0,0,0,0,0,0,0,0,0,0,0,0],"sum_hessian":[7.5E2,4.3E2,3.2E2,2.98E2,1.32E2,1.59E2,1.61E2,4.9E1,8.3E1,4.5E1,1.14E2,6.9E1,9.2E1,2.4E1,2.5E1,2.6E1,5.7E1,1.4E1,3.1E1,6.3E1,5.1E1,2.2E1,4.7E1,8.6E1,6E0,1E0,2.3E1,3E0,2.2E1,1.4E1,1.2E1,4.9E1,8E0,6E0,8E0,1.7E1,1.4E1,1.7E1,4.6E1,1.1E1,4E1,1.9E1,3E0],"tree_param":{"num_deleted":"0","num_feature":"14","num_nodes":"43","size_leaf_vector":"1"}},{"base_weights":[1.8469829E-3,-3.14826E-1,4.2703146E-1,-1.1770449E-2,-1.3817953E-1,2.3598385E-1,6.130845E-1,-3.0239728E-1,-8.315612E-2,-4.812271E-2,2.7691424E-1,4.0753508E-1,6.7278886E-1,-1.1018855E-2,-2.2791043E-1,-1.1949424E-1,-3.711066E-2,2.6649319E-2,-1.5077978E-1,1.7423615E-1,3.191412E-1,2.2083001E-1,4.2849672E-1,1.8443331E-2,2.3777332E-2,-5.2019884E-3,-8.663966E-3,-1.1227261E-3,-4.2307926E-3,-7.604769E-4,-4.6280506E-3,-2.3689962E-3,2.4709129E-3,-1.281501E-3,-5.266577E-3,-1.9344413E-3,5.443655E-3,8.806551E-3,1.2496917E-2,1.8715811E-3,7.2012474E-3,1.34078795E-2,6.96605E-3],"categories":[],"categories_nodes":[],"categories_segments":[],"categories_sizes":[],"default_left":[0,0,0,0,0,0,0,0,0,0,0,0,0,0,0,0,0,0,0,0,0,0,0,0,0,0,0,0,0,0,0,0,0,0,0,0,0,0,0,0,0,0,0],"id":32,"left_children":[1,3,5,-1,7,9,11,13,15,17,19,21,23,-1,25,27,29,31,33,35,37,39,41,-1,-1,-1,-1,-1,-1,-1,-1,-1,-1,-1,-1,-1,-1,-1,-1,-1,-1,-1,-1],"loss_changes":[1.0125242E2,5.8479156E0,1.1265259E1,0E0,1.1766179E0,1.8739004E0,1.713913E0,7.581282E-2,1.6455925E-1,1.6521162E-1,5.5140305E-1,5.8006763E-2,3.744316E-1,0E0,9.665906E-3,9.368247E-2,5.9474736E-2,8.300027E-2,1.6594186E-2,8.5802555E-2,1.22032166E-1,3.2885075E-3,1.9242764E-2,0E0,0E0,0E0,0E0,0E0,0E0,0E0,0E0,0E0,0E0,0E0,0E0,0E0,0E0,0E0,0E0,0E0,0E0,0E0,0E0],"parents":[2147483647,0,0,1,1,2,2,4,4,5,5,6,6,7,7,8,8,9,9,10,10,11,11,12,12,14,14,15,15,16,16,17,17,18,18,19,19,20,20,21,21,22,22],"right_children":[2,4,6,-1,8,10,12,14,16,18,20,22,24,-1,26,28,30,32,34,36,38,40,42,-1,-1,-1,-1,-1,-1,-1,-1,-1,-1,-1,-1,-1,-1,-1,-1,-1,-1,-1,-1],"split_conditions":[5E-1,0E0,1E0,-1.1770449E-2,-3.1428573E-1,-7.777778E-1,-5.555556E-1,-7.777778E-1,4.4444445E-1,5.6667857E0,-1.1111111E-1,-1E0,5.555556E-1,-1.1018855E-2,1.5153571E0,-3.2709184E-1,8.81538E-1,-4.3500635E-1,-6.276698E-1,-1.0066397E0,8.888889E-1,-9.8026913E-1,6.325847E-1,1.8443331E-2,2.3777332E-2,-5.2019884E-3,-8.663966E-3,-1.1227261E-3,-4.2307926E-3,-7.604769E-4,-4.6280506E-3,-2.3689962E-3,2.4709129E-3,-1.281501E-3,-5.266577E-3,-1.9344413E-3,5.443655E-3,8.806551E-3,1.2496917E-2,1.8715811E-3,7.2012474E-3,1.34078795E-2,6.96605E-3],"split_indices":[0,0,0,0,11,3,3,3,3,8,3,3,3,0,8,8,2,2,1,2,3,2,2,0,0,0,0,0,0,0,0,0,0,0,0,0,0,0,0,0,0,0,0],"split_type":[0,0,0,0,0,0,0,0,0,0,0,0,0,0,0,0,0,0,0,0,0,0,0,0,0,0,0,0,0,0,0,0,0,0,0,0,0,0,0,0,0,0,0],"sum_hessian":[7.5E2,4.3E2,3.2E2,2.98E2,1.32E2,1.59E2,1.61E2,3.2E1,1E2,2E1,1.39E2,3.8E1,1.23E2,1.5E1,1.7E1,5.5E1,4.5E1,1.2E1,8E0,4.2E1,9.7E1,5E0,3.3E1,8.7E1,3.6E1,1.1E1,6E0,1.2E1,4.3E1,4.2E1,3E0,4E0,8E0,2E0,6E0,1E0,4.1E1,8E1,1.7E1,1E0,4E0,2.9E1,4E0],"tree_param":{"num_deleted":"0","num_feature":"14","num_nodes":"43","size_leaf_vector":"1"}},{"base_weights":[1.8483718E-3,-3.0549118E-1,4.1450104E-1,-1.1418515E-2,-1.3430202E-1,2.2901918E-1,5.951343E-1,-2.5268948E-1,-6.223447E-2,1.77785E-2,2.8169045E-1,4.646144E-1,6.8697584E-1,-3.2395217E-1,-1.7444886E-1,-7.853455E-3,-8.647676E-2,-1.2120605E-1,9.278014E-2,2.2928566E-1,3.4497368E-1,3.3779195E-1,5.1570404E-1,1.8641766E-2,2.3083292E-2,-1.9243258E-3,-9.963144E-3,-1.2736666E-3,-5.6945845E-3,-1.4785408E-3,1.2166781E-3,2.3872857E-3,-2.909431E-3,8.7253685E-4,-4.625179E-3,3.8116777E-3,5.074659E-4,8.60931E-3,5.542188E-3,1.0534561E-2,3.563142E-3,1.0346302E-2,2.728908E-3,4.5096157E-3,1.56083945E-2],"categories":[],"categories_nodes":[],"categories_segments":[],"categories_sizes":[],"default_left":[0,0,0,0,0,0,0,0,0,0,0,0,0,0,0,0,0,0,0,0,0,0,0,0,0,0,0,0,0,0,0,0,0,0,0,0,0,0,0,0,0,0,0,0,0],"id":33,"left_children":[1,3,5,-1,7,9,11,13,15,17,19,21,23,25,27,29,31,33,35,37,39,41,43,-1,-1,-1,-1,-1,-1,-1,-1,-1,-1,-1,-1,-1,-1,-1,-1,-1,-1,-1,-1,-1,-1],"loss_changes":[9.537182E1,5.491867E0,1.0618549E1,0E0,1.1190162E0,1.7752018E0,1.6227379E0,2.2226858E-1,1.1005977E-1,3.552398E-1,3.453951E-1,2.7934933E-1,2.4864197E-2,3.165078E-2,4.469037E-2,5.6151636E-2,1.0888478E-1,6.3938886E-2,5.5057824E-2,1.34588E-1,3.6556244E-2,8.849382E-3,2.043724E-3,0E0,0E0,0E0,0E0,0E0,0E0,0E0,0E0,0E0,0E0,0E0,0E0,0E0,0E0,0E0,0E0,0E0,0E0,0E0,0E0,0E0,0E0],"parents":[2147483647,0,0,1,1,2,2,4,4,5,5,6,6,7,7,8,8,9,9,10,10,11,11,12,12,13,13,14,14,15,15,16,16,17,17,18,18,19,19,20,20,21,21,22,22],"right_children":[2,4,6,-1,8,10,12,14,16,18,20,22,24,26,28,30,32,34,36,38,40,42,44,-1,-1,-1,-1,-1,-1,-1,-1,-1,-1,-1,-1,-1,-1,-1,-1,-1,-1,-1,-1,-1,-1],"split_conditions":[5E-1,0E0,1E0,-1.1418515E-2,-1.1111111E-1,-5.555556E-1,-1.1111111E-1,-5.555556E-1,-2.9655275E-1,-7.1428573E-1,3.3333334E-1,-7.777778E-1,5.555556E-1,-6.442347E-1,-6.8936914E-1,-4.423818E-2,-9.259355E-1,-6.666667E-1,1.20150864E-1,0E0,5.688203E-1,4.878903E-1,-2.618281E0,1.8641766E-2,2.3083292E-2,-1.9243258E-3,-9.963144E-3,-1.2736666E-3,-5.6945845E-3,-1.4785408E-3,1.2166781E-3,2.3872857E-3,-2.909431E-3,8.7253685E-4,-4.625179E-3,3.8116777E-3,5.074659E-4,8.60931E-3,5.542188E-3,1.0534561E-2,3.563142E-3,1.0346302E-2,2.728908E-3,4.5096157E-3,1.56083945E-2],"split_indices":[0,0,0,0,3,3,3,3,2,11,3,3,3,8,1,10,7,6,2,6,1,1,1,0,0,0,0,0,0,0,0,0,0,0,0,0,0,0,0,0,0,0,0,0,0],"split_type":[0,0,0,0,0,0,0,0,0,0,0,0,0,0,0,0,0,0,0,0,0,0,0,0,0,0,0,0,0,0,0,0,0,0,0,0,0,0,0,0,0,0,0,0,0],"sum_hessian":[7.5E2,4.3E2,3.2E2,2.98E2,1.32E2,1.59E2,1.61E2,4.9E1,8.3E1,3.2E1,1.27E2,6.9E1,9.2E1,2.4E1,2.5E1,2.6E1,5.7E1,1.1E1,2.1E1,7.2E1,5.5E1,2.2E1,4.7E1,5.6E1,3.6E1,1E0,2.3E1,3E0,2.2E1,1.4E1,1.2E1,3E0,5.4E1,2E0,9E0,1.4E1,7E0,2.9E1,4.3E1,5.3E1,2E0,2.1E1,1E0,1E0,4.6E1],"tree_param":{"num_deleted":"0","num_feature":"14","num_nodes":"45","size_leaf_vector":"1"}},{"base_weights":[1.889682E-3,-2.9639855E-1,4.0238917E-1,-1.1077106E-2,-1.3042064E-1,2.2232871E-1,5.777428E-1,-2.4548589E-1,-6.0376782E-2,5.7026464E-2,2.865163E-1,4.5115018E-1,6.668153E-1,-3.1470907E-1,-1.6948336E-1,-7.627567E-3,-8.3891466E-2,-9.30419E-2,1.2558892E-1,2.396755E-1,3.386566E-1,3.282266E-1,1.5019562E-2,2.0393735E-2,4.1028497E-1,-1.8954616E-3,-9.676703E-3,-1.2450098E-3,-5.531173E-3,-1.4371433E-3,1.1829862E-3,-3.0280724E-3,6.036071E-4,3.025653E-4,-3.9437893E-3,5.5081146E-3,1.4279537E-3,9.524413E-3,6.1433516E-3,7.3540458E-3,1.090635E-2,1.03525715E-2,4.856229E-3,3.4411703E-3,1.3212916E-2],"categories":[],"categories_nodes":[],"categories_segments":[],"categories_sizes":[],"default_left":[0,0,0,0,0,0,0,0,0,0,0,0,0,0,0,0,0,0,0,0,0,0,0,0,0,0,0,0,0,0,0,0,0,0,0,0,0,0,0,0,0,0,0,0,0],"id":34,"left_children":[1,3,5,-1,7,9,11,13,15,17,19,21,23,25,27,29,31,33,35,37,39,41,-1,-1,43,-1,-1,-1,-1,-1,-1,-1,-1,-1,-1,-1,-1,-1,-1,-1,-1,-1,-1,-1,-1],"loss_changes":[8.9836945E1,5.162445E0,1.0006886E1,0E0,1.057107E0,1.6813178E0,1.5258675E0,2.0971894E-1,1.035521E-1,4.8498166E-1,1.9969559E-1,2.6161957E-1,3.0662537E-2,2.8967857E-2,4.1892827E-2,5.3066533E-2,1.0485351E-1,6.075467E-2,1.360482E-1,1.08757734E-1,3.1917572E-2,8.644104E-3,0E0,0E0,1.185298E-2,0E0,0E0,0E0,0E0,0E0,0E0,0E0,0E0,0E0,0E0,0E0,0E0,0E0,0E0,0E0,0E0,0E0,0E0,0E0,0E0],"parents":[2147483647,0,0,1,1,2,2,4,4,5,5,6,6,7,7,8,8,9,9,10,10,11,11,12,12,13,13,14,14,15,15,16,16,17,17,18,18,19,19,20,20,21,21,24,24],"right_children":[2,4,6,-1,8,10,12,14,16,18,20,22,24,26,28,30,32,34,36,38,40,42,-1,-1,44,-1,-1,-1,-1,-1,-1,-1,-1,-1,-1,-1,-1,-1,-1,-1,-1,-1,-1,-1,-1],"split_conditions":[5E-1,0E0,1E0,-1.1077106E-2,-1.1111111E-1,-4.4444445E-1,-1.1111111E-1,-5.555556E-1,-2.9655275E-1,-8.888889E-1,4.4444445E-1,-7.777778E-1,5.4531294E-1,-6.442347E-1,-6.8936914E-1,-4.423818E-2,8.888889E-1,-6.0708153E-1,1.6155777E-2,-3.3333334E-1,2E-1,6.325847E-1,1.5019562E-2,2.0393735E-2,5.688203E-1,-1.8954616E-3,-9.676703E-3,-1.2450098E-3,-5.531173E-3,-1.4371433E-3,1.1829862E-3,-3.0280724E-3,6.036071E-4,3.025653E-4,-3.9437893E-3,5.5081146E-3,1.4279537E-3,9.524413E-3,6.1433516E-3,7.3540458E-3,1.090635E-2,1.03525715E-2,4.856229E-3,3.4411703E-3,1.3212916E-2],"split_indices":[0,0,0,0,3,3,3,3,2,3,3,3,1,8,1,10,3,1,2,6,11,2,0,0,1,0,0,0,0,0,0,0,0,0,0,0,0,0,0,0,0,0,0,0,0],"split_type":[0,0,0,0,0,0,0,0,0,0,0,0,0,0,0,0,0,0,0,0,0,0,0,0,0,0,0,0,0,0,0,0,0,0,0,0,0,0,0,0,0,0,0,0,0],"sum_hessian":[7.5E2,4.3E2,3.2E2,2.98E2,1.32E2,1.59E2,1.61E2,4.9E1,8.3E1,4.5E1,1.14E2,6.9E1,9.2E1,2.4E1,2.5E1,2.6E1,5.7E1,1.4E1,3.1E1,6.3E1,5.1E1,2.2E1,4.7E1,8.6E1,6E0,1E0,2.3E1,3E0,2.2E1,1.4E1,1.2E1,4.9E1,8E0,4E0,1E1,1.7E1,1.4E1,1.7E1,4.6E1,1.3E1,3.8E1,1.9E1,3E0,1E0,5E0],"tree_param":{"num_deleted":"0","num_feature":"14","num_nodes":"45","size_leaf_vector":"1"}},{"base_weights":[1.9293417E-3,-2.8758112E-1,3.90643E-1,-1.0745906E-2,-1.2666611E-1,2.1589148E-1,5.608257E-1,-2.780816E-1,-7.593961E-2,-4.5418914E-2,2.5354594E-1,4.0378547E-1,6.2732774E-1,-1.0156577E-2,-2.0888065E-1,-1.0994074E-1,-3.289608E-2,2.4164017E-2,-1.4088105E-1,1.5885985E-1,2.925047E-1,2.8407738E-1,4.4140267E-1,1.6709028E-2,2.1192724E-2,-4.9674334E-3,-8.6502945E-3,-9.674978E-4,-3.9118854E-3,-6.473321E-4,-4.3903263E-3,-2.246803E-3,2.295331E-3,-1.1694204E-3,-4.932803E-3,6.39574E-3,3.336406E-3,8.053428E-3,1.1535342E-2,9.557566E-3,3.2860064E-3,2.9656398E-3,1.3445158E-2],"categories":[],"categories_nodes":[],"categories_segments":[],"categories_sizes":[],"default_left":[0,0,0,0,0,0,0,0,0,0,0,0,0,0,0,0,0,0,0,0,0,0,0,0,0,0,0,0,0,0,0,0,0,0,0,0,0,0,0,0,0,0,0],"id":35,"left_children":[1,3,5,-1,7,9,11,13,15,17,19,21,23,-1,25,27,29,31,33,35,37,39,41,-1,-1,-1,-1,-1,-1,-1,-1,-1,-1,-1,-1,-1,-1,-1,-1,-1,-1,-1,-1],"loss_changes":[8.462738E1,4.8521423E0,9.425369E0,0E0,1.000426E0,1.5858369E0,1.4385338E0,6.737661E-2,1.4419979E-1,1.4289749E-1,4.699707E-1,1.0426521E-1,2.2985077E-1,0E0,1.418823E-2,8.479005E-2,5.590827E-2,7.313988E-2,1.5184388E-2,8.7604165E-2,1.1369419E-1,5.545211E-2,4.149151E-2,0E0,0E0,0E0,0E0,0E0,0E0,0E0,0E0,0E0,0E0,0E0,0E0,0E0,0E0,0E0,0E0,0E0,0E0,0E0,0E0],"parents":[2147483647,0,0,1,1,2,2,4,4,5,5,6,6,7,7,8,8,9,9,10,10,11,11,12,12,14,14,15,15,16,16,17,17,18,18,19,19,20,20,21,21,22,22],"right_children":[2,4,6,-1,8,10,12,14,16,18,20,22,24,-1,26,28,30,32,34,36,38,40,42,-1,-1,-1,-1,-1,-1,-1,-1,-1,-1,-1,-1,-1,-1,-1,-1,-1,-1,-1,-1],"split_conditions":[5E-1,0E0,1E0,-1.0745906E-2,-3.1428573E-1,-7.777778E-1,-3.3333334E-1,-7.777778E-1,4.4444445E-1,5.6667857E0,-1.1111111E-1,-6.571429E-1,5.4285717E-1,-1.0156577E-2,7.192952E-1,-3.2709184E-1,8.81538E-1,-4.3500635E-1,-6.276698E-1,-1.4645887E-2,8.888889E-1,6.666667E-1,-9.125161E-1,1.6709028E-2,2.1192724E-2,-4.9674334E-3,-8.6502945E-3,-9.674978E-4,-3.9118854E-3,-6.473321E-4,-4.3903263E-3,-2.246803E-3,2.295331E-3,-1.1694204E-3,-4.932803E-3,6.39574E-3,3.336406E-3,8.053428E-3,1.1535342E-2,9.557566E-3,3.2860064E-3,2.9656398E-3,1.3445158E-2],"split_indices":[0,0,0,0,11,3,3,3,3,8,3,11,11,0,10,8,2,2,1,2,3,6,7,0,0,0,0,0,0,0,0,0,0,0,0,0,0,0,0,0,0,0,0],"split_type":[0,0,0,0,0,0,0,0,0,0,0,0,0,0,0,0,0,0,0,0,0,0,0,0,0,0,0,0,0,0,0,0,0,0,0,0,0,0,0,0,0,0,0],"sum_hessian":[7.5E2,4.3E2,3.2E2,2.98E2,1.32E2,1.59E2,1.61E2,3.2E1,1E2,2E1,1.39E2,5E1,1.11E2,1.5E1,1.7E1,5.5E1,4.5E1,1.2E1,8E0,4.2E1,9.7E1,1.4E1,3.6E1,6.3E1,4.8E1,1.3E1,4E0,1.2E1,4.3E1,4.2E1,3E0,4E0,8E0,2E0,6E0,1.8E1,2.4E1,8E1,1.7E1,1.1E1,3E0,1E0,3.5E1],"tree_param":{"num_deleted":"0","num_feature":"14","num_nodes":"43","size_leaf_vector":"1"}},{"base_weights":[1.9326604E-3,-2.7905682E-1,3.7920535E-1,-1.0424608E-2,-1.2311946E-1,2.0956008E-1,5.444155E-1,-2.3224548E-1,-5.6697797E-2,5.313335E-2,2.703085E-1,4.2510444E-1,6.283655E-1,-1.7652954E-1,-3.214888E-1,-5.770105E-3,-7.9427965E-2,-1.1270837E-1,1.08475275E-1,2.2586414E-1,3.1981102E-1,3.0982044E-1,4.7148836E-1,1.6979389E-2,2.1224717E-2,-6.534068E-3,-2.5845624E-3,-9.988526E-3,-1.8995082E-3,-8.281159E-4,2.2574607E-3,2.389031E-3,-2.6865597E-3,8.9101435E-4,-4.3248055E-3,5.0712945E-3,1.0320258E-3,9.049959E-3,5.760849E-3,6.6168807E-3,1.02317715E-2,9.499884E-3,2.3893225E-3,4.0149987E-3,1.4274749E-2],"categories":[],"categories_nodes":[],"categories_segments":[],"categories_sizes":[],"default_left":[0,0,0,0,0,0,0,0,0,0,0,0,0,0,0,0,0,0,0,0,0,0,0,0,0,0,0,0,0,0,0,0,0,0,0,0,0,0,0,0,0,0,0,0,0],"id":36,"left_children":[1,3,5,-1,7,9,11,13,15,17,19,21,23,25,27,29,31,33,35,37,39,41,43,-1,-1,-1,-1,-1,-1,-1,-1,-1,-1,-1,-1,-1,-1,-1,-1,-1,-1,-1,-1,-1,-1],"loss_changes":[7.971907E1,4.5563393E0,8.882618E0,0E0,9.5086026E-1,1.5060658E0,1.3554993E0,1.9186163E-1,9.6779644E-2,4.3441403E-1,1.8077755E-1,2.2823524E-1,5.8647156E-2,1.0432994E-1,3.2183766E-2,4.983867E-2,1.0053179E-1,5.8029845E-2,1.5121332E-1,1.06218815E-1,3.4434795E-2,1.1003256E-2,6.6051483E-3,0E0,0E0,0E0,0E0,0E0,0E0,0E0,0E0,0E0,0E0,0E0,0E0,0E0,0E0,0E0,0E0,0E0,0E0,0E0,0E0,0E0,0E0],"parents":[2147483647,0,0,1,1,2,2,4,4,5,5,6,6,7,7,8,8,9,9,10,10,11,11,12,12,13,13,14,14,15,15,16,16,17,17,18,18,19,19,20,20,21,21,22,22],"right_children":[2,4,6,-1,8,10,12,14,16,18,20,22,24,26,28,30,32,34,36,38,40,42,44,-1,-1,-1,-1,-1,-1,-1,-1,-1,-1,-1,-1,-1,-1,-1,-1,-1,-1,-1,-1,-1,-1],"split_conditions":[5E-1,0E0,1E0,-1.0424608E-2,-1.1111111E-1,-4.4444445E-1,-1.1111111E-1,1.5153571E0,-2.9655275E-1,-7.1428573E-1,4.4444445E-1,-7.777778E-1,5.555556E-1,5.0392854E-1,2.7399526E0,2.4680334E-1,-9.259355E-1,-6.666667E-1,1.6155777E-2,-3.3333334E-1,-3.3731994E-1,4.878903E-1,-2.618281E0,1.6979389E-2,2.1224717E-2,-6.534068E-3,-2.5845624E-3,-9.988526E-3,-1.8995082E-3,-8.281159E-4,2.2574607E-3,2.389031E-3,-2.6865597E-3,8.9101435E-4,-4.3248055E-3,5.0712945E-3,1.0320258E-3,9.049959E-3,5.760849E-3,6.6168807E-3,1.02317715E-2,9.499884E-3,2.3893225E-3,4.0149987E-3,1.4274749E-2],"split_indices":[0,0,0,0,3,3,3,8,2,11,3,3,3,8,12,10,7,6,2,6,2,1,1,0,0,0,0,0,0,0,0,0,0,0,0,0,0,0,0,0,0,0,0,0,0],"split_type":[0,0,0,0,0,0,0,0,0,0,0,0,0,0,0,0,0,0,0,0,0,0,0,0,0,0,0,0,0,0,0,0,0,0,0,0,0,0,0,0,0,0,0,0,0],"sum_hessian":[7.5E2,4.3E2,3.2E2,2.98E2,1.32E2,1.59E2,1.61E2,4.9E1,8.3E1,4.5E1,1.14E2,6.9E1,9.2E1,3.2E1,1.7E1,2.6E1,5.7E1,1.1E1,3.4E1,6.3E1,5.1E1,2.2E1,4.7E1,5.6E1,3.6E1,2.1E1,1.1E1,1.6E1,1E0,2.1E1,5E0,3E0,5.4E1,2E0,9E0,1.8E1,1.6E1,1.7E1,4.6E1,1.1E1,4E1,2.1E1,1E0,1E0,4.6E1],"tree_param":{"num_deleted":"0","num_feature":"14","num_nodes":"45","size_leaf_vector":"1"}},{"base_weights":[1.9710895E-3,-2.707554E-1,3.6814913E-1,-1.0112916E-2,-1.1957533E-1,2.0348781E-1,5.285051E-1,-2.2569822E-1,-5.4983426E-2,-4.3787666E-2,2.3912565E-1,3.510015E-1,5.800707E-1,-1.7150997E-1,-3.1250456E-1,-5.5440706E-3,-7.7050306E-2,2.2093168E-2,-1.3408357E-1,1.4989813E-1,2.7583647E-1,1.8700294E-1,3.6961886E-1,1.5499388E-2,1.999815E-2,-6.3469554E-3,-2.5134867E-3,-9.706495E-3,-1.871016E-3,-1.3223054E-3,1.1802987E-3,-2.8000597E-3,6.59494E-4,-2.1767549E-3,2.166679E-3,-1.0595333E-3,-4.717709E-3,6.0654744E-3,3.1249821E-3,7.582807E-3,1.09306555E-2,1.3412333E-3,6.1956123E-3,1.1595371E-2,5.8300206E-3],"categories":[],"categories_nodes":[],"categories_segments":[],"categories_sizes":[],"default_left":[0,0,0,0,0,0,0,0,0,0,0,0,0,0,0,0,0,0,0,0,0,0,0,0,0,0,0,0,0,0,0,0,0,0,0,0,0,0,0,0,0,0,0,0,0],"id":37,"left_children":[1,3,5,-1,7,9,11,13,15,17,19,21,23,25,27,29,31,33,35,37,39,41,43,-1,-1,-1,-1,-1,-1,-1,-1,-1,-1,-1,-1,-1,-1,-1,-1,-1,-1,-1,-1,-1,-1],"loss_changes":[7.509939E1,4.2824306E0,8.368275E0,0E0,8.9926255E-1,1.4204488E0,1.2791939E0,1.8159676E-1,9.121454E-2,1.278865E-1,4.1723824E-1,4.9955845E-2,3.3616257E-1,9.8234E-2,2.955234E-2,4.8434265E-2,9.559193E-2,6.6923246E-2,1.5044704E-2,8.17554E-2,1.0808802E-1,7.4303895E-3,2.5567532E-2,0E0,0E0,0E0,0E0,0E0,0E0,0E0,0E0,0E0,0E0,0E0,0E0,0E0,0E0,0E0,0E0,0E0,0E0,0E0,0E0,0E0,0E0],"parents":[2147483647,0,0,1,1,2,2,4,4,5,5,6,6,7,7,8,8,9,9,10,10,11,11,12,12,13,13,14,14,15,15,16,16,17,17,18,18,19,19,20,20,21,21,22,22],"right_children":[2,4,6,-1,8,10,12,14,16,18,20,22,24,26,28,30,32,34,36,38,40,42,44,-1,-1,-1,-1,-1,-1,-1,-1,-1,-1,-1,-1,-1,-1,-1,-1,-1,-1,-1,-1,-1,-1],"split_conditions":[5E-1,0E0,1E0,-1.0112916E-2,-1.1111111E-1,-7.777778E-1,-5.555556E-1,1.5153571E0,-2.9655275E-1,5.6667857E0,-1.1111111E-1,-1E0,5.4285717E-1,5.0392854E-1,2.7399526E0,-4.423818E-2,8.888889E-1,-4.3500635E-1,-6.276698E-1,-1.4645887E-2,8.888889E-1,-9.8026913E-1,6.325847E-1,1.5499388E-2,1.999815E-2,-6.3469554E-3,-2.5134867E-3,-9.706495E-3,-1.871016E-3,-1.3223054E-3,1.1802987E-3,-2.8000597E-3,6.59494E-4,-2.1767549E-3,2.166679E-3,-1.0595333E-3,-4.717709E-3,6.0654744E-3,3.1249821E-3,7.582807E-3,1.09306555E-2,1.3412333E-3,6.1956123E-3,1.1595371E-2,5.8300206E-3],"split_indices":[0,0,0,0,3,3,3,8,2,8,3,3,11,8,12,10,3,2,1,2,3,2,2,0,0,0,0,0,0,0,0,0,0,0,0,0,0,0,0,0,0,0,0,0,0],"split_type":[0,0,0,0,0,0,0,0,0,0,0,0,0,0,0,0,0,0,0,0,0,0,0,0,0,0,0,0,0,0,0,0,0,0,0,0,0,0,0,0,0,0,0,0,0],"sum_hessian":[7.5E2,4.3E2,3.2E2,2.98E2,1.32E2,1.59E2,1.61E2,4.9E1,8.3E1,2E1,1.39E2,3.8E1,1.23E2,3.2E1,1.7E1,2.6E1,5.7E1,1.2E1,8E0,4.2E1,9.7E1,5E0,3.3E1,7.5E1,4.8E1,2.1E1,1.1E1,1.6E1,1E0,1.4E1,1.2E1,4.9E1,8E0,4E0,8E0,2E0,6E0,1.8E1,2.4E1,8E1,1.7E1,1E0,4E0,2.9E1,4E0],"tree_param":{"num_deleted":"0","num_feature":"14","num_nodes":"45","size_leaf_vector":"1"}},{"base_weights":[1.9779128E-3,-2.6270896E-1,3.573613E-1,-9.810544E-3,-1.16158895E-1,1.9752014E-1,5.1302314E-1,-2.5588456E-1,-6.935587E-2,4.9477942E-2,2.5501946E-1,4.0040824E-1,5.922707E-1,-9.368104E-3,-1.9154823E-1,-1.011073E-1,-2.919421E-2,-1.0710732E-1,1.01750664E-1,2.1285556E-1,3.0200925E-1,2.918378E-1,4.440897E-1,5.3249216E-1,2.0050637E-2,-4.5126546E-3,-8.051774E-3,-1.2540926E-3,-3.8429603E-3,-4.303844E-4,-3.2960903E-3,8.7329507E-4,-4.117852E-3,4.7862567E-3,9.3525386E-4,8.600986E-3,5.4013813E-3,6.459555E-3,9.761555E-3,9.227977E-3,4.2021326E-3,3.8673233E-3,1.3441585E-2,1.609441E-2,4.6372926E-3],"categories":[],"categories_nodes":[],"categories_segments":[],"categories_sizes":[],"default_left":[0,0,0,0,0,0,0,0,0,0,0,0,0,0,0,0,0,0,0,0,0,0,0,0,0,0,0,0,0,0,0,0,0,0,0,0,0,0,0,0,0,0,0,0,0],"id":38,"left_children":[1,3,5,-1,7,9,11,13,15,17,19,21,23,-1,25,27,29,31,33,35,37,39,41,43,-1,-1,-1,-1,-1,-1,-1,-1,-1,-1,-1,-1,-1,-1,-1,-1,-1,-1,-1,-1,-1],"loss_changes":[7.073693E1,4.023983E0,7.8855247E0,0E0,8.5201776E-1,1.3493547E0,1.2086105E0,5.9897423E-2,1.2584245E-1,3.8741454E-1,1.6356182E-1,2.023735E-1,6.7085266E-2,0E0,1.6513824E-2,8.4284484E-2,5.352602E-2,5.3286254E-2,1.3777894E-1,1.0343909E-1,3.5315514E-2,1.1931658E-2,2.1972656E-3,2.9850006E-3,0E0,0E0,0E0,0E0,0E0,0E0,0E0,0E0,0E0,0E0,0E0,0E0,0E0,0E0,0E0,0E0,0E0,0E0,0E0,0E0,0E0],"parents":[2147483647,0,0,1,1,2,2,4,4,5,5,6,6,7,7,8,8,9,9,10,10,11,11,12,12,14,14,15,15,16,16,17,17,18,18,19,19,20,20,21,21,22,22,23,23],"right_children":[2,4,6,-1,8,10,12,14,16,18,20,22,24,-1,26,28,30,32,34,36,38,40,42,44,-1,-1,-1,-1,-1,-1,-1,-1,-1,-1,-1,-1,-1,-1,-1,-1,-1,-1,-1,-1,-1],"split_conditions":[5E-1,0E0,1E0,-9.810544E-3,-3.1428573E-1,-4.4444445E-1,-1.1111111E-1,-7.777778E-1,4.4444445E-1,-7.1428573E-1,4.4444445E-1,-7.777778E-1,5.555556E-1,-9.368104E-3,7.192952E-1,-2.6167664E-1,6.569198E-1,-6.666667E-1,1.6155777E-2,-3.3333334E-1,2E-1,6.325847E-1,-2.618281E0,7.51461E-1,2.0050637E-2,-4.5126546E-3,-8.051774E-3,-1.2540926E-3,-3.8429603E-3,-4.303844E-4,-3.2960903E-3,8.7329507E-4,-4.117852E-3,4.7862567E-3,9.3525386E-4,8.600986E-3,5.4013813E-3,6.459555E-3,9.761555E-3,9.227977E-3,4.2021326E-3,3.8673233E-3,1.3441585E-2,1.609441E-2,4.6372926E-3],"split_indices":[0,0,0,0,11,3,3,3,3,11,3,3,3,0,10,1,10,6,2,6,11,2,1,8,0,0,0,0,0,0,0,0,0,0,0,0,0,0,0,0,0,0,0,0,0],"split_type":[0,0,0,0,0,0,0,0,0,0,0,0,0,0,0,0,0,0,0,0,0,0,0,0,0,0,0,0,0,0,0,0,0,0,0,0,0,0,0,0,0,0,0,0,0],"sum_hessian":[7.5E2,4.3E2,3.2E2,2.98E2,1.32E2,1.59E2,1.61E2,3.2E1,1E2,4.5E1,1.14E2,6.9E1,9.2E1,1.5E1,1.7E1,5.5E1,4.5E1,1.1E1,3.4E1,6.3E1,5.1E1,2.2E1,4.7E1,5.6E1,3.6E1,1.3E1,4E0,1.8E1,3.7E1,3.9E1,6E0,2E0,9E0,1.8E1,1.6E1,1.7E1,4.6E1,1.3E1,3.8E1,1.9E1,3E0,1E0,4.6E1,5.5E1,1E0],"tree_param":{"num_deleted":"0","num_feature":"14","num_nodes":"45","size_leaf_vector":"1"}},{"base_weights":[2.0033468E-3,-2.549218E-1,3.4696513E-1,-3.172404E-1,-1.1290539E-1,1.9179891E-1,4.9807397E-1,-9.631017E-3,-2.4443932E-1,-2.1371223E-1,-5.1557206E-2,1.2985529E-2,2.3640081E-1,3.888351E-1,5.749411E-1,-2.726365E-1,-1.1095989E-1,-1.6226992E-1,-2.9615024E-1,-3.9313547E-3,-7.283895E-2,-1.0416447E-1,7.629528E-2,1.9216694E-1,2.8984138E-1,2.8366658E-1,1.2933829E-2,1.5506433E-2,1.9465378E-2,-2.17969E-3,-8.451932E-3,-4.2530163E-3,-1.2949776E-3,-6.019563E-3,-2.351403E-3,-9.198271E-3,-1.7752611E-3,-1.2478142E-3,1.1948319E-3,-4.706343E-3,-1.5618746E-3,8.558285E-4,-4.0066694E-3,3.178225E-3,3.351885E-4,7.3827133E-3,4.531005E-3,8.872932E-3,2.5984E-3,8.703894E-3,2.122128E-3],"categories":[],"categories_nodes":[],"categories_segments":[],"categories_sizes":[],"default_left":[0,0,0,0,0,0,0,0,0,0,0,0,0,0,0,0,0,0,0,0,0,0,0,0,0,0,0,0,0,0,0,0,0,0,0,0,0,0,0,0,0,0,0,0,0,0,0,0,0,0,0],"id":39,"left_children":[1,3,5,7,9,11,13,-1,15,17,19,21,23,25,27,29,31,33,35,37,39,41,43,45,47,49,-1,-1,-1,-1,-1,-1,-1,-1,-1,-1,-1,-1,-1,-1,-1,-1,-1,-1,-1,-1,-1,-1,-1,-1,-1],"loss_changes":[6.664909E1,3.7786446E0,7.430954E0,4.102707E-3,8.1149566E-1,1.2729969E0,1.136734E0,0E0,4.1259527E-2,1.6398406E-1,8.4852755E-2,2.5269958E-1,2.468791E-1,1.8905258E-1,6.368065E-2,6.8113804E-3,4.323244E-3,9.052873E-2,2.6468754E-2,4.6154596E-2,9.3102604E-2,5.0609753E-2,4.1289255E-2,1.2475014E-1,4.1791916E-2,1.1129856E-2,0E0,0E0,0E0,0E0,0E0,0E0,0E0,0E0,0E0,0E0,0E0,0E0,0E0,0E0,0E0,0E0,0E0,0E0,0E0,0E0,0E0,0E0,0E0,0E0,0E0],"parents":[2147483647,0,0,1,1,2,2,3,3,4,4,5,5,6,6,8,8,9,9,10,10,11,11,12,12,13,13,14,14,15,15,16,16,17,17,18,18,19,19,20,20,21,21,22,22,23,23,24,24,25,25],"right_children":[2,4,6,8,10,12,14,-1,16,18,20,22,24,26,28,30,32,34,36,38,40,42,44,46,48,50,-1,-1,-1,-1,-1,-1,-1,-1,-1,-1,-1,-1,-1,-1,-1,-1,-1,-1,-1,-1,-1,-1,-1,-1,-1],"split_conditions":[5E-1,0E0,1E0,1E0,-1.1111111E-1,-5.555556E-1,-1.1111111E-1,-9.631017E-3,6.090323E-1,1.5153571E0,-2.9655275E-1,-7.1428573E-1,3.3333334E-1,-7.777778E-1,5.555556E-1,-9.4519734E-1,0E0,5.0392854E-1,2.7399526E0,-4.423818E-2,-1.9073811E-1,-6.666667E-1,1.20150864E-1,0E0,5.688203E-1,4.878903E-1,1.2933829E-2,1.5506433E-2,1.9465378E-2,-2.17969E-3,-8.451932E-3,-4.2530163E-3,-1.2949776E-3,-6.019563E-3,-2.351403E-3,-9.198271E-3,-1.7752611E-3,-1.2478142E-3,1.1948319E-3,-4.706343E-3,-1.5618746E-3,8.558285E-4,-4.0066694E-3,3.178225E-3,3.351885E-4,7.3827133E-3,4.531005E-3,8.872932E-3,2.5984E-3,8.703894E-3,2.122128E-3],"split_indices":[0,0,0,3,